{"learner":{"attributes":{"best_iteration":"18","best_score":"0.6583460524346486","scikit_learn":"{\"_estimator_type\": \"classifier\"}"},"feature_names":[],"feature_types":[],"gradient_booster":{"model":{"cats":{"enc":[],"feature_segments":[],"sorted_idx":[]},"gbtree_model_param":{"num_parallel_tree":"1","num_trees":"69"},"iteration_indptr":[0,1,2,3,4,5,6,7,8,9,10,11,12,13,14,15,16,17,18,19,20,21,22,23,24,25,26,27,28,29,30,31,32,33,34,35,36,37,38,39,40,41,42,43,44,45,46,47,48,49,50,51,52,53,54,55,56,57,58,59,60,61,62,63,64,65,66,67,68,69],"tree_info":[0,0,0,0,0,0,0,0,0,0,0,0,0,0,0,0,0,0,0,0,0,0,0,0,0,0,0,0,0,0,0,0,0,0,0,0,0,0,0,0,0,0,0,0,0,0,0,0,0,0,0,0,0,0,0,0,0,0,0,0,0,0,0,0,0,0,0,0,0],"trees":[{"base_weights":[-5.2917353E-3,-3.6134788E-1,1.8693058E0,-4.3748748E-1,1.2614785E0,1.9234675E0,1.7212514E0,3.7364803E-2,-7.042018E-1,1.1446549E0,1.4070497E0,1.9046842E0,1.9822764E0,1.6389989E0,1.8504082E0,7.10345E-1,-9.2148416E-2,-4.0296793E-1,-8.916297E-1,1.0621808E0,7.640177E-2,1.5665597E0,4.700463E-2,1.9153574E0,1.7676531E0,1.0205464E-1,1.9400114E0,1.5684925E0,1.8066725E0,1.919327E0,8.419702E-2,8.922621E-3,4.4042177E-2,-1.8792793E-2,4.2956923E-3,-3.5075627E-2,-1.2601199E-2,-4.987732E-2,-4.069912E-2,6.587851E-2,4.7272425E-2,6.924992E-2,9.020738E-2,9.594801E-2,9.957028E-2,1.01999275E-1,7.965286E-2,9.396385E-2,1.0202648E-1,8.7226614E-2,7.0993446E-2,8.834763E-2,9.570784E-2,8.653727E-2,1.0204281E-1],"categories":[],"categories_nodes":[],"categories_segments":[],"categories_sizes":[],"default_left":[0,0,0,0,0,0,0,0,0,0,0,0,0,0,0,0,0,0,0,0,0,0,0,0,0,0,0,0,0,0,0,0,0,0,0,0,0,0,0,0,0,0,0,0,0,0,0,0,0,0,0,0,0,0,0],"id":0,"left_children":[1,3,5,7,9,11,13,15,17,19,21,23,25,27,29,31,33,35,37,39,-1,41,-1,43,45,-1,47,49,51,53,-1,-1,-1,-1,-1,-1,-1,-1,-1,-1,-1,-1,-1,-1,-1,-1,-1,-1,-1,-1,-1,-1,-1,-1,-1],"loss_changes":[1.3440475E3,2.0909624E2,2.5587158E0,2.0472137E2,1.2783127E0,2.3931885E-1,8.9733887E-1,5.0673656E1,5.8434265E1,1.2124023E0,2.6048737E0,2.4188232E-1,2.1148682E-2,6.056824E-1,4.4449615E-1,7.6681824E0,2.3736195E1,1.7612656E1,5.1413574E0,1.0512047E0,0E0,1.0553284E0,0E0,1.8835449E-1,6.006279E-1,0E0,7.8063965E-2,9.1114044E-1,6.2259674E-2,4.2747498E-1,0E0,0E0,0E0,0E0,0E0,0E0,0E0,0E0,0E0,0E0,0E0,0E0,0E0,0E0,0E0,0E0,0E0,0E0,0E0,0E0,0E0,0E0,0E0,0E0,0E0],"parents":[2147483647,0,0,1,1,2,2,3,3,4,4,5,5,6,6,7,7,8,8,9,9,10,10,11,11,12,12,13,13,14,14,15,15,16,16,17,17,18,18,19,19,21,21,23,23,24,24,26,26,27,27,28,28,29,29],"right_children":[2,4,6,8,10,12,14,16,18,20,22,24,26,28,30,32,34,36,38,40,-1,42,-1,44,46,-1,48,50,52,54,-1,-1,-1,-1,-1,-1,-1,-1,-1,-1,-1,-1,-1,-1,-1,-1,-1,-1,-1,-1,-1,-1,-1,-1,-1],"split_conditions":[1E0,1E0,9.681895E-1,1E0,1E0,1E0,1E0,1E0,1E0,1E0,9.905813E-2,1E0,-8.71843E-2,2.3339674E0,2.085644E0,1E0,-3.9758837E-1,-4.5966917E-1,-3.3550754E-1,1E0,7.640177E-2,-4.5966917E-1,4.700463E-2,-3.3550754E-1,-2.1134593E-1,1.0205464E-1,3.4738138E-1,1.7752401E0,2.6443715E0,1.2785935E0,8.419702E-2,8.922621E-3,4.4042177E-2,-1.8792793E-2,4.2956923E-3,-3.5075627E-2,-1.2601199E-2,-4.987732E-2,-4.069912E-2,6.587851E-2,4.7272425E-2,6.924992E-2,9.020738E-2,9.594801E-2,9.957028E-2,1.01999275E-1,7.965286E-2,9.396385E-2,1.0202648E-1,8.7226614E-2,7.0993446E-2,8.834763E-2,9.570784E-2,8.653727E-2,1.0204281E-1],"split_indices":[20,12,0,29,23,23,2,9,23,27,0,29,0,0,0,19,0,0,0,2,0,0,0,0,0,0,0,0,0,0,0,0,0,0,0,0,0,0,0,0,0,0,0,0,0,0,0,0,0,0,0,0,0,0,0],"split_type":[0,0,0,0,0,0,0,0,0,0,0,0,0,0,0,0,0,0,0,0,0,0,0,0,0,0,0,0,0,0,0,0,0,0,0,0,0,0,0,0,0,0,0,0,0,0,0,0,0,0,0,0,0,0,0],"sum_hessian":[2.0136707E3,1.6922522E3,3.214184E2,1.6164169E3,7.583531E1,2.3529376E2,8.6124626E1,5.8136273E2,1.0350542E3,4.2094955E1,3.3740356E1,1.7843398E2,5.685979E1,5.2650593E1,3.3474037E1,9.382715E1,4.875356E2,3.9700742E2,6.3804675E2,3.4127598E1,7.967359E0,2.5393917E1,8.346439E0,1.654911E2,1.2942879E1,4.0062313E1,1.6797478E1,3.7094955E1,1.5555638E1,2.4885757E1,8.588279E0,2.0821959E1,7.3005196E1,1.9001187E2,2.9752374E2,1.4065875E2,2.5634866E2,3.3385016E2,3.041966E2,1.2701038E1,2.1426558E1,1.2451038E1,1.2942879E1,8.349555E1,8.199555E1,6.0964394E0,6.8464394E0,6.3464394E0,1.0451038E1,2.0660238E1,1.643472E1,7.467359E0,8.088279E0,6.5964394E0,1.8289318E1],"tree_param":{"num_deleted":"0","num_feature":"48","num_nodes":"55","size_leaf_vector":"1"}},{"base_weights":[-7.951839E-3,-3.5680848E-1,1.4169832E0,-3.977273E-1,1.2829821E0,1.5691022E0,-4.3428272E-2,-4.7425875E-1,3.3929288E-1,9.989071E-1,1.4978285E0,1.762789E0,9.607362E-1,-9.1050875E-1,6.0794276E-1,-6.9604176E-1,-3.2300058E-1,-2.8524703E-1,7.5107545E-1,7.098422E-2,2.8135426E-2,1.7377236E0,5.348656E-2,1.8145131E0,1.6033156E0,1.2843089E0,4.2500156E-1,-2.8851284E-2,-6.126892E-2,4.074045E-1,4.70432E-2,-3.7280764E-2,2.2298936E-2,-1.7147835E-2,5.2910164E-2,-3.468726E-2,8.993805E-3,8.084172E-2,5.914937E-3,8.324697E-2,9.306401E-2,9.5168926E-2,9.124366E-2,8.4561385E-2,7.559523E-2,5.743422E-2,9.542062E-2,-7.470654E-3,4.619723E-2,3.4405128E-3,3.914034E-2],"categories":[],"categories_nodes":[],"categories_segments":[],"categories_sizes":[],"default_left":[0,0,0,0,0,0,0,0,0,0,0,0,0,0,0,0,0,0,0,0,0,0,0,0,0,0,0,0,0,0,0,0,0,0,0,0,0,0,0,0,0,0,0,0,0,0,0,0,0,0,0],"id":1,"left_children":[1,3,5,7,9,11,13,15,17,19,21,23,25,27,29,31,33,35,37,-1,-1,39,-1,41,43,45,47,-1,-1,49,-1,-1,-1,-1,-1,-1,-1,-1,-1,-1,-1,-1,-1,-1,-1,-1,-1,-1,-1,-1,-1],"loss_changes":[1.00545776E3,1.09024E2,8.83786E1,8.942021E1,2.4033585E0,4.2440002E1,2.1197342E1,4.8175232E1,3.835399E1,2.9839535E0,2.416298E0,2.2370605E0,1.5077049E1,1.6052713E0,1.3440685E0,2.2757874E1,1.5114586E1,1.0788549E1,4.7550644E1,0E0,0E0,1.1684036E-1,0E0,2.5708008E-1,4.2352295E-1,5.031372E0,8.99542E0,0E0,0E0,1.5970833E0,0E0,0E0,0E0,0E0,0E0,0E0,0E0,0E0,0E0,0E0,0E0,0E0,0E0,0E0,0E0,0E0,0E0,0E0,0E0,0E0,0E0],"parents":[2147483647,0,0,1,1,2,2,3,3,4,4,5,5,6,6,7,7,8,8,9,9,10,10,11,11,12,12,13,13,14,14,15,15,16,16,17,17,18,18,21,21,23,23,24,24,25,25,26,26,29,29],"right_children":[2,4,6,8,10,12,14,16,18,20,22,24,26,28,30,32,34,36,38,-1,-1,40,-1,42,44,46,48,-1,-1,50,-1,-1,-1,-1,-1,-1,-1,-1,-1,-1,-1,-1,-1,-1,-1,-1,-1,-1,-1,-1,-1],"split_conditions":[1E0,1E0,1E0,1E0,-2.335692E-1,1E0,7.5978495E-2,-1.5618227E-1,-1.4084318E-3,-5.838308E-1,7.724608E-1,9.681895E-1,1E0,-7.0799243E-1,1.3141693E0,1E0,3.5583901E0,1E0,7.5978495E-2,7.098422E-2,2.8135426E-2,-1.4926511E-1,5.348656E-2,-5.838308E-1,2.085644E0,1E0,-1.5618227E-1,-2.8851284E-2,-6.126892E-2,-2.1134593E-1,4.70432E-2,-3.7280764E-2,2.2298936E-2,-1.7147835E-2,5.2910164E-2,-3.468726E-2,8.993805E-3,8.084172E-2,5.914937E-3,8.324697E-2,9.306401E-2,9.5168926E-2,9.124366E-2,8.4561385E-2,7.559523E-2,5.743422E-2,9.542062E-2,-7.470654E-3,4.619723E-2,3.4405128E-3,3.914034E-2],"split_indices":[10,12,18,27,1,19,1,1,1,0,1,0,11,0,1,17,1,24,1,0,0,0,0,0,0,17,1,0,0,0,0,0,0,0,0,0,0,0,0,0,0,0,0,0,0,0,0,0,0,0,0],"split_type":[0,0,0,0,0,0,0,0,0,0,0,0,0,0,0,0,0,0,0,0,0,0,0,0,0,0,0,0,0,0,0,0,0,0,0,0,0,0,0,0,0,0,0,0,0,0,0,0,0,0,0],"sum_hessian":[2.022656E3,1.6248575E3,3.9779837E2,1.5853021E3,3.9555515E1,3.6027347E2,3.75249E1,1.4361759E3,1.491262E2,1.7045261E1,2.2510252E1,2.732643E2,8.700917E1,1.6098587E1,2.1426311E1,5.823193E2,8.5385657E2,5.9252747E1,8.987346E1,9.0799675E0,7.9652944E0,1.4671036E1,7.8392153E0,2.0630661E2,6.695769E1,5.424029E1,3.276888E1,7.3593373E0,8.739249E0,1.308284E1,8.343471E0,5.651192E2,1.720011E1,8.457632E2,8.093387E0,3.194887E1,2.7303879E1,3.8876694E1,5.099677E1,6.5886245E0,8.082412E0,7.1125435E1,1.3518118E2,4.645399E1,2.0503698E1,4.2673943E1,1.1566349E1,1.4962507E1,1.7806374E1,6.730192E0,6.352648E0],"tree_param":{"num_deleted":"0","num_feature":"48","num_nodes":"51","size_leaf_vector":"1"}},{"base_weights":[2.6426056E-2,-2.7762818E-1,1.6902858E0,-4.3645704E-1,1.5144983E-1,1.7172896E0,1.4562125E0,-1.5340279E-1,-6.288541E-1,1.2084552E0,9.571734E-2,1.7571094E0,1.6731274E0,6.086131E-2,1.6415454E0,-1.984375E-1,5.0589865E-1,-6.546626E-1,6.9681925E-1,2.2049252E-2,1.5470344E0,-2.0177881E-3,4.0722695E-1,1.7327003E0,9.3401544E-2,1.7404125E0,1.6122618E0,8.977815E-2,7.624255E-2,-3.483009E-2,-7.1229166E-3,-1.5385248E-2,5.714245E-2,-4.228756E-2,-2.603857E-2,4.658501E-2,2.4318647E-2,6.48782E-2,9.77572E-2,1.0652691E-2,-9.519643E-3,-9.756755E-3,2.6869725E-2,8.752034E-2,9.1777235E-2,9.051928E-2,8.346864E-2,8.335159E-2,7.217416E-2],"categories":[],"categories_nodes":[],"categories_segments":[],"categories_sizes":[],"default_left":[0,0,0,0,0,0,0,0,0,0,0,0,0,0,0,0,0,0,0,0,0,0,0,0,0,0,0,0,0,0,0,0,0,0,0,0,0,0,0,0,0,0,0,0,0,0,0,0,0],"id":2,"left_children":[1,3,5,7,9,11,13,15,17,19,21,23,25,-1,27,29,31,33,35,-1,37,39,41,43,-1,45,47,-1,-1,-1,-1,-1,-1,-1,-1,-1,-1,-1,-1,-1,-1,-1,-1,-1,-1,-1,-1,-1,-1],"loss_changes":[1.0329775E3,1.1765245E2,1.9786987E0,6.8614105E1,2.7470747E1,4.802246E-1,1.5824356E0,1.5138204E1,2.5664795E1,6.1323624E0,1.3489611E1,2.4716187E-1,5.3286743E-1,0E0,3.168373E-1,1.3596418E1,1.6158352E1,1.8483185E1,6.7651033E-1,0E0,1.6371078E0,1.3114954E1,7.5550747E0,1.1190796E-1,0E0,2.0553589E-1,2.7928162E-1,0E0,0E0,0E0,0E0,0E0,0E0,0E0,0E0,0E0,0E0,0E0,0E0,0E0,0E0,0E0,0E0,0E0,0E0,0E0,0E0,0E0,0E0],"parents":[2147483647,0,0,1,1,2,2,3,3,4,4,5,5,6,6,7,7,8,8,9,9,10,10,11,11,12,12,14,14,15,15,16,16,17,17,18,18,20,20,21,21,22,22,23,23,25,25,26,26],"right_children":[2,4,6,8,10,12,14,16,18,20,22,24,26,-1,28,30,32,34,36,-1,38,40,42,44,-1,46,48,-1,-1,-1,-1,-1,-1,-1,-1,-1,-1,-1,-1,-1,-1,-1,-1,-1,-1,-1,-1,-1,-1],"split_conditions":[1E0,1E0,2.085644E0,1E0,1E0,-8.71843E-2,2.3339674E0,1E0,2.629747E0,-3.3550754E-1,8.440279E-1,1E0,1E0,6.086131E-2,2.8306139E0,-9.300515E-1,-7.879536E-2,-7.879536E-2,1E0,2.2049252E-2,7.724608E-1,1E0,-1.5618227E-1,1E0,9.3401544E-2,1E0,1.9614825E0,8.977815E-2,7.624255E-2,-3.483009E-2,-7.1229166E-3,-1.5385248E-2,5.714245E-2,-4.228756E-2,-2.603857E-2,4.658501E-2,2.4318647E-2,6.48782E-2,9.77572E-2,1.0652691E-2,-9.519643E-3,-9.756755E-3,2.6869725E-2,8.752034E-2,9.1777235E-2,9.051928E-2,8.346864E-2,8.335159E-2,7.217416E-2],"split_indices":[20,28,0,23,5,0,0,7,1,0,0,23,3,0,0,1,1,1,3,0,1,18,1,28,0,28,0,0,0,0,0,0,0,0,0,0,0,0,0,0,0,0,0,0,0,0,0,0,0],"split_type":[0,0,0,0,0,0,0,0,0,0,0,0,0,0,0,0,0,0,0,0,0,0,0,0,0,0,0,0,0,0,0,0,0,0,0,0,0,0,0,0,0,0,0,0,0,0,0,0,0],"sum_hessian":[2.0418339E3,1.7263588E3,3.1547507E2,1.2599708E3,4.663879E2,2.8281973E2,3.2655342E1,5.098702E2,7.5010065E2,2.3354307E1,4.430336E2,1.4863686E2,1.3418286E2,1.3494847E1,1.9160496E1,4.7727524E2,3.259496E1,7.357797E2,1.4320888E1,7.0962353E0,1.6258072E1,3.372238E2,1.0580983E2,1.11517456E2,3.7119404E1,6.367582E1,7.050704E1,1.0632313E1,8.528183E0,5.1734413E1,4.2554083E2,1.40765E1,1.8518461E1,3.3372708E2,4.0205267E2,7.219621E0,7.101267E0,9.31121E0,6.9468613E0,1.5741228E2,1.7981151E2,1.7583246E1,8.8226585E1,8.794023E1,2.3577225E1,4.8253674E1,1.5422146E1,6.3701782E1,6.80526E0],"tree_param":{"num_deleted":"0","num_feature":"48","num_nodes":"49","size_leaf_vector":"1"}},{"base_weights":[5.835274E-3,-3.0442652E-1,1.3030117E0,1.408217E-1,-5.4691786E-1,1.4505426E0,-2.884267E-1,9.512274E-2,1.6121814E0,-6.052029E-1,1.136264E0,1.6163884E0,9.1278714E-1,-8.2460994E-1,3.793344E-2,-1.5628818E-1,2.9768658E-1,8.857156E-2,7.4226856E-2,-3.4226614E-1,-7.7244484E-1,8.604633E-1,1.4521246E0,1.6683925E0,1.4620675E0,1.3552752E0,7.9863393E-1,2.369463E-3,-1.3918602E0,8.465658E-3,-2.6012506E-2,6.079664E-3,2.2333307E-2,-6.299862E-2,-1.2138603E-2,-4.1492604E-2,2.2665147E-2,6.818718E-2,1.5456103E-2,8.42374E-2,6.1376434E-2,8.421484E-2,8.829477E-2,7.7982806E-2,6.8375655E-2,4.958289E-2,9.142761E-2,5.720836E-3,4.787927E-2,-9.7760454E-2,-4.1025765E-2],"categories":[],"categories_nodes":[],"categories_segments":[],"categories_sizes":[],"default_left":[0,0,0,0,0,0,0,0,0,0,0,0,0,0,0,0,0,0,0,0,0,0,0,0,0,0,0,0,0,0,0,0,0,0,0,0,0,0,0,0,0,0,0,0,0,0,0,0,0,0,0],"id":3,"left_children":[1,3,5,7,9,11,13,15,17,19,21,23,25,27,-1,29,31,-1,-1,33,35,37,39,41,43,45,47,-1,49,-1,-1,-1,-1,-1,-1,-1,-1,-1,-1,-1,-1,-1,-1,-1,-1,-1,-1,-1,-1,-1,-1],"loss_changes":[8.143928E2,1.763076E2,9.170538E1,3.8708355E1,1.037142E2,3.1867065E1,1.8332657E1,2.8438972E1,3.2196808E-1,4.4928864E1,3.072464E0,2.177246E0,4.2472305E0,1.077909E1,0E0,2.8373142E1,7.7258434E0,0E0,0E0,3.7000603E1,3.0865936E1,5.0072556E0,8.0317307E-1,2.1240234E-1,5.426178E-1,2.8787632E0,6.416397E0,0E0,4.0561295E0,0E0,0E0,0E0,0E0,0E0,0E0,0E0,0E0,0E0,0E0,0E0,0E0,0E0,0E0,0E0,0E0,0E0,0E0,0E0,0E0,0E0,0E0],"parents":[2147483647,0,0,1,1,2,2,3,3,4,4,5,5,6,6,7,7,8,8,9,9,10,10,11,11,12,12,13,13,15,15,16,16,19,19,20,20,21,21,22,22,23,23,24,24,25,25,26,26,28,28],"right_children":[2,4,6,8,10,12,14,16,18,20,22,24,26,28,-1,30,32,-1,-1,34,36,38,40,42,44,46,48,-1,50,-1,-1,-1,-1,-1,-1,-1,-1,-1,-1,-1,-1,-1,-1,-1,-1,-1,-1,-1,-1,-1,-1],"split_conditions":[1E0,1E0,1E0,1E0,1E0,1E0,6.17687E-1,-2.1134593E-1,1E0,1E0,1.5336542E-1,9.681895E-1,-7.752777E-1,1E0,3.793344E-2,1E0,1E0,8.857156E-2,7.4226856E-2,-8.526646E-1,2.3201993E0,-3.8834304E-1,7.724608E-1,1E0,2.085644E0,1E0,-3.1095612E-1,2.369463E-3,1E0,8.465658E-3,-2.6012506E-2,6.079664E-3,2.2333307E-2,-6.299862E-2,-1.2138603E-2,-4.1492604E-2,2.2665147E-2,6.818718E-2,1.5456103E-2,8.42374E-2,6.1376434E-2,8.421484E-2,8.829477E-2,7.7982806E-2,6.8375655E-2,4.958289E-2,9.142761E-2,5.720836E-3,4.787927E-2,-9.7760454E-2,-4.1025765E-2],"split_indices":[10,29,18,7,12,19,1,0,3,23,1,0,1,29,0,18,3,0,0,1,1,1,1,23,0,12,1,0,5,0,0,0,0,0,0,0,0,0,0,0,0,0,0,0,0,0,0,0,0,0,0],"split_type":[0,0,0,0,0,0,0,0,0,0,0,0,0,0,0,0,0,0,0,0,0,0,0,0,0,0,0,0,0,0,0,0,0,0,0,0,0,0,0,0,0,0,0,0,0,0,0,0,0,0,0],"sum_hessian":[2.0235037E3,1.6329341E3,3.9056955E2,5.757553E2,1.0571788E3,3.5743622E2,3.313333E1,5.58416E2,1.7339254E1,1.0217993E3,3.5379463E1,2.7317706E2,8.4259155E1,2.1804966E1,1.1328363E1,2.4915942E2,3.0925662E2,9.702095E0,7.6371593E0,3.972578E2,6.245415E2,1.8897251E1,1.648221E1,2.0429082E2,6.8886246E1,1.7268753E1,6.69904E1,8.598553E0,1.3206413E1,1.3034058E2,1.1881885E2,1.3589523E2,1.7336137E2,4.1610455E1,3.5564737E2,6.043653E2,2.0176205E1,1.0192871E1,8.704381E0,9.163009E0,7.319202E0,1.5796E2,4.6330814E1,4.4687416E1,2.4198832E1,9.196146E0,8.072607E0,1.1323083E1,5.566732E1,6.9786468E0,6.227767E0],"tree_param":{"num_deleted":"0","num_feature":"48","num_nodes":"51","size_leaf_vector":"1"}},{"base_weights":[-7.0137256E-3,-3.0272266E-1,1.5756042E0,-3.6385402E-1,1.0358548E0,1.6164502E0,1.5324767E0,-5.36936E-1,9.237186E-2,1.3804755E0,9.0218997E-1,1.6599867E0,1.605617E0,1.515481E0,1.6571308E0,-8.027413E-1,-4.4320396E-1,2.3975912E-2,1.2182338E0,7.9170205E-2,1.3005995E0,1.0966692E0,6.125477E-1,1.7145323E0,7.642045E-2,8.677307E-2,1.598287E0,6.42249E-2,1.5433639E0,8.72661E-2,7.9145685E-2,3.958415E-3,-4.398092E-2,-2.3795852E-2,1.39605645E-2,1.9211547E-2,-5.195924E-3,3.0165609E-2,8.852884E-2,6.975425E-2,6.1996847E-2,4.213869E-2,6.6972315E-2,2.3253197E-2,4.4538643E-2,8.142433E-2,8.9580305E-2,8.653576E-2,8.122833E-2,8.149265E-2,7.854911E-2],"categories":[],"categories_nodes":[],"categories_segments":[],"categories_sizes":[],"default_left":[0,0,0,0,0,0,0,0,0,0,0,0,0,0,0,0,0,0,0,0,0,0,0,0,0,0,0,0,0,0,0,0,0,0,0,0,0,0,0,0,0,0,0,0,0,0,0,0,0,0,0],"id":4,"left_children":[1,3,5,7,9,11,13,15,17,19,21,23,25,27,29,31,33,35,37,-1,39,41,43,45,-1,-1,47,-1,49,-1,-1,-1,-1,-1,-1,-1,-1,-1,-1,-1,-1,-1,-1,-1,-1,-1,-1,-1,-1,-1,-1],"loss_changes":[9.409434E2,1.3862267E2,5.423584E-1,1.2793027E2,3.3983383E0,6.0638428E-2,3.109436E-1,2.925772E1,3.4307705E1,2.688446E-1,2.996975E0,2.7018738E-1,7.41272E-2,9.586792E-1,8.757782E-2,1.592778E1,1.43694E1,1.8626362E1,8.256031E0,0E0,6.856918E-2,1.8548431E0,8.700857E-1,1.0053253E-1,0E0,0E0,6.1340332E-2,0E0,1.2084961E-2,0E0,0E0,0E0,0E0,0E0,0E0,0E0,0E0,0E0,0E0,0E0,0E0,0E0,0E0,0E0,0E0,0E0,0E0,0E0,0E0,0E0,0E0],"parents":[2147483647,0,0,1,1,2,2,3,3,4,4,5,5,6,6,7,7,8,8,9,9,10,10,11,11,12,12,13,13,14,14,15,15,16,16,17,17,18,18,20,20,21,21,22,22,23,23,26,26,28,28],"right_children":[2,4,6,8,10,12,14,16,18,20,22,24,26,28,30,32,34,36,38,-1,40,42,44,46,-1,-1,48,-1,50,-1,-1,-1,-1,-1,-1,-1,-1,-1,-1,-1,-1,-1,-1,-1,-1,-1,-1,-1,-1,-1,-1],"split_conditions":[1E0,1E0,1E0,1E0,-6.2050384E-1,1E0,1E0,-4.6572998E-1,1E0,-1.0848254E0,1E0,1E0,1E0,1E0,1E0,1E0,1E0,1E0,1E0,7.9170205E-2,1E0,1.5336542E-1,3.8552618E-1,1E0,7.642045E-2,8.677307E-2,1E0,6.42249E-2,1E0,8.72661E-2,7.9145685E-2,3.958415E-3,-4.398092E-2,-2.3795852E-2,1.39605645E-2,1.9211547E-2,-5.195924E-3,3.0165609E-2,8.852884E-2,6.975425E-2,6.1996847E-2,4.213869E-2,6.6972315E-2,2.3253197E-2,4.4538643E-2,8.142433E-2,8.9580305E-2,8.653576E-2,8.122833E-2,8.149265E-2,7.854911E-2],"split_indices":[20,12,3,28,1,7,9,1,7,1,10,28,42,7,7,11,7,42,17,0,9,1,1,11,0,0,11,0,42,0,0,0,0,0,0,0,0,0,0,0,0,0,0,0,0,0,0,0,0,0,0],"split_type":[0,0,0,0,0,0,0,0,0,0,0,0,0,0,0,0,0,0,0,0,0,0,0,0,0,0,0,0,0,0,0,0,0,0,0,0,0,0,0,0,0,0,0,0,0,0,0,0,0,0,0],"sum_hessian":[2.0105905E3,1.6940623E3,3.1652826E2,1.620079E3,7.398326E1,1.6248366E2,1.540446E2,1.1745042E3,4.455748E2,2.066337E1,5.3319893E1,3.2246872E1,1.3023679E2,1.3561072E2,1.8433884E1,3.0618237E2,8.683218E2,4.2006122E2,2.5513567E1,6.5556517E0,1.4107718E1,3.1890347E1,2.1429548E1,2.4111807E1,8.135065E0,9.28378E0,1.2095301E2,1.3295738E1,1.2231497E2,1.2264185E1,6.1696978E0,1.9254496E1,2.869279E2,8.412317E2,2.7090073E1,1.10486176E2,3.0957504E2,1.1528045E1,1.3985522E1,7.9179487E0,6.18977E0,1.414569E1,1.7744656E1,1.3380028E1,8.0495205E0,6.203689E0,1.7908117E1,7.5875955E0,1.1336542E2,8.703E0,1.1361197E2],"tree_param":{"num_deleted":"0","num_feature":"48","num_nodes":"51","size_leaf_vector":"1"}},{"base_weights":[3.105067E-3,-2.70717E-1,1.5292189E0,-3.305781E-1,1.0634423E0,1.5733783E0,1.4130018E0,-5.5669874E-1,-1.6618851E-1,1.3622663E0,9.483422E-1,1.5574276E0,1.6724162E0,1.3627636E0,1.5759887E0,-2.936525E-1,-6.916373E-1,-2.1719263E-1,7.284076E-1,8.0794826E-2,6.0338207E-2,1.1043792E0,7.403543E-1,1.4700861E0,1.5661256E0,8.847734E-2,7.906473E-2,1.4424616E0,5.028346E-2,1.5246408E0,8.547694E-2,1.8115552E-2,-1.8784836E-2,-4.4251967E-2,-3.0876024E-2,9.1785835E-3,-1.3540007E-2,2.3154164E-2,8.7859556E-2,2.6393443E-2,6.655595E-2,1.0680516E-2,5.4497253E-2,6.3479565E-2,8.3551064E-2,8.361094E-2,7.9396434E-2,6.143613E-2,7.532458E-2,8.544812E-2,6.96906E-2],"categories":[],"categories_nodes":[],"categories_segments":[],"categories_sizes":[],"default_left":[0,0,0,0,0,0,0,0,0,0,0,0,0,0,0,0,0,0,0,0,0,0,0,0,0,0,0,0,0,0,0,0,0,0,0,0,0,0,0,0,0,0,0,0,0,0,0,0,0,0,0],"id":5,"left_children":[1,3,5,7,9,11,13,15,17,19,21,23,25,27,29,31,33,35,37,-1,-1,39,41,43,45,-1,-1,47,-1,49,-1,-1,-1,-1,-1,-1,-1,-1,-1,-1,-1,-1,-1,-1,-1,-1,-1,-1,-1,-1,-1],"loss_changes":[8.3793494E2,1.3577843E2,1.5513306E0,6.048111E1,2.5010529E0,3.33313E-1,6.7427063E-1,2.4308945E1,4.298888E1,7.9379654E-1,1.7035484E0,1.3018799E-1,2.1489716E-1,1.9226913E0,8.488083E-2,1.121493E1,6.8753815E0,1.7034359E1,1.3856422E1,0E0,0E0,3.5255928E0,3.9292011E0,6.4115906E-1,1.1349487E-1,0E0,0E0,4.1257477E-1,0E0,2.9662895E-1,0E0,0E0,0E0,0E0,0E0,0E0,0E0,0E0,0E0,0E0,0E0,0E0,0E0,0E0,0E0,0E0,0E0,0E0,0E0,0E0,0E0],"parents":[2147483647,0,0,1,1,2,2,3,3,4,4,5,5,6,6,7,7,8,8,9,9,10,10,11,11,12,12,13,13,14,14,15,15,16,16,17,17,18,18,21,21,22,22,23,23,24,24,27,27,29,29],"right_children":[2,4,6,8,10,12,14,16,18,20,22,24,26,28,30,32,34,36,38,-1,-1,40,42,44,46,-1,-1,48,-1,50,-1,-1,-1,-1,-1,-1,-1,-1,-1,-1,-1,-1,-1,-1,-1,-1,-1,-1,-1,-1,-1],"split_conditions":[1E0,1E0,9.681895E-1,-3.9758837E-1,-6.2050384E-1,1E0,2.3339674E0,1E0,1E0,-7.0799243E-1,1E0,1E0,1E0,2.085644E0,2.8926947E0,1E0,-8.526646E-1,1E0,1E0,8.0794826E-2,6.0338207E-2,-4.5966917E-1,1E0,1E0,-1.0183965E0,8.847734E-2,7.906473E-2,1.1544319E0,5.028346E-2,2.5822906E0,8.547694E-2,1.8115552E-2,-1.8784836E-2,-4.4251967E-2,-3.0876024E-2,9.1785835E-3,-1.3540007E-2,2.3154164E-2,8.7859556E-2,2.6393443E-2,6.655595E-2,1.0680516E-2,5.4497253E-2,6.3479565E-2,8.3551064E-2,8.361094E-2,7.9396434E-2,6.143613E-2,7.532458E-2,8.544812E-2,6.96906E-2],"split_indices":[20,12,0,0,1,9,0,23,10,0,10,7,7,0,0,42,1,42,17,0,0,0,23,23,0,0,0,0,0,0,0,0,0,0,0,0,0,0,0,0,0,0,0,0,0,0,0,0,0,0,0],"split_type":[0,0,0,0,0,0,0,0,0,0,0,0,0,0,0,0,0,0,0,0,0,0,0,0,0,0,0,0,0,0,0,0,0,0,0,0,0,0,0,0,0,0,0,0,0,0,0,0,0,0,0],"sum_hessian":[2.0051735E3,1.7001289E3,3.0504453E2,1.6271271E3,7.300194E1,2.2101068E2,8.4033844E1,6.84947E2,9.4218E2,2.0285282E1,5.2716656E1,1.9041373E2,3.0596945E1,6.42657E1,1.9768147E1,2.3224435E2,4.527027E2,8.913652E2,5.08148E1,9.088625E0,1.1196657E1,3.010595E1,2.2610706E1,1.7313055E1,1.7310068E2,2.0384947E1,1.0211998E1,5.304938E1,1.1216319E1,1.3061227E1,6.7069197E0,2.39057E1,2.0833865E2,1.4956802E2,3.0313467E2,9.636068E1,7.950045E2,3.9811085E1,1.10037155E1,7.6496043E0,2.2456345E1,8.630498E0,1.3980208E1,7.373219E0,9.9398365E0,2.1542812E1,1.5155786E2,6.562879E0,4.6486504E1,6.705238E0,6.3559885E0],"tree_param":{"num_deleted":"0","num_feature":"48","num_nodes":"51","size_leaf_vector":"1"}},{"base_weights":[-1.0244389E-2,1.225674E0,-2.4545597E-1,1.3825513E0,9.922579E-2,1.576494E-1,-4.6981096E-1,1.4046689E0,4.256237E-2,-6.2677795E-1,5.562723E-1,3.3233595E-1,-6.8365835E-2,-5.444593E-1,1.0018969E0,1.3790052E0,1.5270889E0,-1.1701037E-2,-5.1607206E-2,7.2982246E-1,2.833306E-3,3.122696E-1,6.5536186E-2,-2.217236E-1,4.251123E-1,-2.7437335E-1,-7.152092E-1,6.9043905E-1,1.2346792E0,7.70554E-2,6.9088876E-2,8.193986E-2,7.403509E-2,1.5382491E-2,7.533389E-2,3.0756474E-3,1.842405E-2,-2.2052625E-2,-1.7371137E-3,5.0035805E-2,1.581661E-2,-2.5349898E-2,-7.835312E-3,-4.191064E-2,-3.0837882E-2,4.935891E-2,2.6293041E-2,7.103434E-2,4.4016946E-2],"categories":[],"categories_nodes":[],"categories_segments":[],"categories_sizes":[],"default_left":[0,0,0,0,0,0,0,0,0,0,0,0,0,0,0,0,0,0,0,0,0,0,0,0,0,0,0,0,0,0,0,0,0,0,0,0,0,0,0,0,0,0,0,0,0,0,0,0,0],"id":6,"left_children":[1,3,5,7,9,11,13,15,-1,17,19,21,23,25,27,29,31,-1,-1,33,-1,35,-1,37,39,41,43,45,47,-1,-1,-1,-1,-1,-1,-1,-1,-1,-1,-1,-1,-1,-1,-1,-1,-1,-1,-1,-1],"loss_changes":[5.7750903E2,5.612451E1,1.5094168E2,3.3730469E0,1.2885954E1,2.3561968E1,1.1779529E2,8.282471E-1,0E0,2.2883854E0,2.0689273E0,6.4237976E0,1.9687662E1,4.705774E1,3.7449265E0,7.1710205E-1,2.6364136E-1,0E0,0E0,5.6516886E0,0E0,4.0493126E0,0E0,7.8365755E0,3.940628E0,1.0619001E1,7.349243E0,1.0685692E0,1.7236176E0,0E0,0E0,0E0,0E0,0E0,0E0,0E0,0E0,0E0,0E0,0E0,0E0,0E0,0E0,0E0,0E0,0E0,0E0,0E0,0E0],"parents":[2147483647,0,0,1,1,2,2,3,3,4,4,5,5,6,6,7,7,9,9,10,10,11,11,12,12,13,13,14,14,15,15,16,16,19,19,21,21,23,23,24,24,25,25,26,26,27,27,28,28],"right_children":[2,4,6,8,10,12,14,16,-1,18,20,22,24,26,28,30,32,-1,-1,34,-1,36,-1,38,40,42,44,46,48,-1,-1,-1,-1,-1,-1,-1,-1,-1,-1,-1,-1,-1,-1,-1,-1,-1,-1,-1,-1],"split_conditions":[1E0,1E0,1E0,1E0,-3.9758837E-1,1E0,1E0,1E0,4.256237E-2,1E0,7.198663E-1,1E0,5.336238E-1,1E0,1E0,-7.0799243E-1,-2.1134593E-1,-1.1701037E-2,-5.1607206E-2,1.6113894E-1,2.833306E-3,-6.4591163E-1,6.5536186E-2,-5.2175E-1,7.198663E-1,-4.5966917E-1,-3.3550754E-1,-5.838308E-1,9.905813E-2,7.70554E-2,6.9088876E-2,8.193986E-2,7.403509E-2,1.5382491E-2,7.533389E-2,3.0756474E-3,1.842405E-2,-2.2052625E-2,-1.7371137E-3,5.0035805E-2,1.581661E-2,-2.5349898E-2,-7.835312E-3,-4.191064E-2,-3.0837882E-2,4.935891E-2,2.6293041E-2,7.103434E-2,4.4016946E-2],"split_indices":[5,29,29,18,0,18,12,23,0,23,0,25,0,23,23,0,0,0,0,0,0,0,0,0,0,0,0,0,0,0,0,0,0,0,0,0,0,0,0,0,0,0,0,0,0,0,0,0,0],"split_type":[0,0,0,0,0,0,0,0,0,0,0,0,0,0,0,0,0,0,0,0,0,0,0,0,0,0,0,0,0,0,0,0,0,0,0,0,0,0,0,0,0,0,0,0,0,0,0,0,0],"sum_hessian":[1.9866045E3,3.1762457E2,1.6689799E3,2.787945E2,3.8830074E1,5.967568E2,1.0722231E3,2.6797983E2,1.0814655E1,1.499836E1,2.3831717E1,3.366064E2,2.6015036E2,1.0204663E3,5.1756832E1,2.2158206E2,4.639778E1,7.3801336E0,7.6182265E0,1.769281E1,6.138907E0,3.2966312E2,6.943276E0,1.9847708E2,6.167328E1,3.9526846E2,6.251978E2,2.2146933E1,2.9609898E1,3.5696835E1,1.8588522E2,2.282349E1,2.3574291E1,1.1245573E1,6.4472365E0,5.345421E1,2.7620892E2,9.356515E1,1.0491194E2,1.0586133E1,5.1087147E1,1.3915614E2,2.561123E2,3.196071E2,3.0559073E2,8.574665E0,1.3572267E1,2.0803701E1,8.806196E0],"tree_param":{"num_deleted":"0","num_feature":"48","num_nodes":"49","size_leaf_vector":"1"}},{"base_weights":[-1.8585568E-4,-2.5291032E-1,1.4218593E0,2.9209742E-1,-3.3192104E-1,1.4725341E0,1.2800813E0,4.798887E-1,6.940134E-2,-1.0290299E-1,-4.6613514E-1,1.4523525E0,1.5376143E0,1.237351E0,1.4864444E0,6.9074064E-1,-3.494022E-2,-3.0703044E-1,4.471051E-1,-3.0373305E-1,1.9286143E-2,-6.145891E-1,-2.7206582E-1,6.4243354E-2,1.4595453E0,1.5669845E0,1.4579186E0,1.1928278E0,1.3852391E0,8.34461E-2,6.871001E-2,2.2807105E-2,4.5707848E-2,-4.4085752E-2,3.9939635E-2,-3.3046212E-2,4.4624373E-2,3.0855041E-2,-9.773866E-3,6.5191067E-4,-1.8604446E-2,1.7605204E-2,-4.907093E-3,-2.970753E-2,-9.3300276E-2,-1.5838614E-2,2.4649343E-2,7.3988184E-2,8.027655E-2,7.852254E-2,8.249199E-2,7.217647E-2,7.675428E-2,6.461999E-2,3.4598667E-2,7.4546985E-2,6.602257E-2],"categories":[],"categories_nodes":[],"categories_segments":[],"categories_sizes":[],"default_left":[0,0,0,0,0,0,0,0,0,0,0,0,0,0,0,0,0,0,0,0,0,0,0,0,0,0,0,0,0,0,0,0,0,0,0,0,0,0,0,0,0,0,0,0,0,0,0,0,0,0,0,0,0,0,0,0,0],"id":7,"left_children":[1,3,5,7,9,11,13,15,17,19,21,23,25,27,29,31,33,35,37,39,41,43,45,-1,47,49,51,53,55,-1,-1,-1,-1,-1,-1,-1,-1,-1,-1,-1,-1,-1,-1,-1,-1,-1,-1,-1,-1,-1,-1,-1,-1,-1,-1,-1,-1],"loss_changes":[7.217655E2,7.34323E1,2.1646729E0,9.027861E0,4.577771E1,2.789917E-1,6.9151306E-1,1.27166E1,1.4046177E1,1.3505616E1,2.7051102E1,2.2476196E-1,1.0907745E-1,4.240799E-1,2.706318E-1,4.1472664E0,2.3065289E1,1.9905027E1,4.9621754E0,4.009203E0,1.2865409E1,2.0948517E1,1.176989E1,0E0,1.668396E-1,3.8612366E-2,1.4959335E-2,1.9160004E0,9.294891E-2,0E0,0E0,0E0,0E0,0E0,0E0,0E0,0E0,0E0,0E0,0E0,0E0,0E0,0E0,0E0,0E0,0E0,0E0,0E0,0E0,0E0,0E0,0E0,0E0,0E0,0E0,0E0,0E0],"parents":[2147483647,0,0,1,1,2,2,3,3,4,4,5,5,6,6,7,7,8,8,9,9,10,10,11,11,12,12,13,13,14,14,15,15,16,16,17,17,18,18,19,19,20,20,21,21,22,22,24,24,25,25,26,26,27,27,28,28],"right_children":[2,4,6,8,10,12,14,16,18,20,22,24,26,28,30,32,34,36,38,40,42,44,46,-1,48,50,52,54,56,-1,-1,-1,-1,-1,-1,-1,-1,-1,-1,-1,-1,-1,-1,-1,-1,-1,-1,-1,-1,-1,-1,-1,-1,-1,-1,-1,-1],"split_conditions":[1E0,1E0,9.681895E-1,1E0,1E0,1E0,1E0,1E0,1E0,-4.5966917E-1,1.5336542E-1,-2.335692E-1,-8.71843E-2,2.3339674E0,1.7752401E0,-2.7342674E-1,7.5978495E-2,2.085644E0,1.8994017E0,-1.3169861E0,-2.1134593E-1,1E0,2.4749732E0,6.4243354E-2,7.819471E-1,1E0,1E0,2.1477249E0,2.8926947E0,8.34461E-2,6.871001E-2,2.2807105E-2,4.5707848E-2,-4.4085752E-2,3.9939635E-2,-3.3046212E-2,4.4624373E-2,3.0855041E-2,-9.773866E-3,6.5191067E-4,-1.8604446E-2,1.7605204E-2,-4.907093E-3,-2.970753E-2,-9.3300276E-2,-1.5838614E-2,2.4649343E-2,7.3988184E-2,8.027655E-2,7.852254E-2,8.249199E-2,7.217647E-2,7.675428E-2,6.461999E-2,3.4598667E-2,7.4546985E-2,6.602257E-2],"split_indices":[20,9,0,8,23,23,9,18,23,0,1,1,0,0,0,0,1,0,0,1,0,13,1,0,0,5,5,0,0,0,0,0,0,0,0,0,0,0,0,0,0,0,0,0,0,0,0,0,0,0,0,0,0,0,0,0,0],"split_type":[0,0,0,0,0,0,0,0,0,0,0,0,0,0,0,0,0,0,0,0,0,0,0,0,0,0,0,0,0,0,0,0,0,0,0,0,0,0,0,0,0,0,0,0,0,0,0,0,0,0,0,0,0,0,0,0,0],"sum_hessian":[2.0083364E3,1.7052798E3,3.0305658E2,2.1591019E2,1.4893696E3,2.232265E2,7.9830086E1,1.17126144E2,9.8784035E1,5.50331E2,9.3903864E2,1.7046613E2,5.276038E1,6.6161644E1,1.3668441E1,8.309771E1,3.402843E1,4.947168E1,4.931236E1,2.0818251E2,3.4214847E2,5.3203577E2,4.070029E2,6.140153E0,1.6432597E2,3.8492496E1,1.4267883E1,5.0884323E1,1.5277325E1,6.6061053E0,7.0623355E0,3.795716E1,4.5140553E1,1.6898487E1,1.7129944E1,3.8405838E1,1.1065844E1,3.955991E1,9.752448E0,3.3552975E1,1.7462955E2,8.95432E1,2.5260529E2,5.18184E2,1.3851722E1,3.8736072E2,1.9642157E1,1.5142586E2,1.2900115E1,2.4574596E1,1.39179E1,7.4071345E0,6.8607492E0,4.4524864E1,6.359457E0,8.330842E0,6.9464827E0],"tree_param":{"num_deleted":"0","num_feature":"48","num_nodes":"57","size_leaf_vector":"1"}},{"base_weights":[-3.9569195E-2,-2.8852525E-1,1.383848E0,-3.3682984E-1,4.1262072E-1,1.3421429E0,1.4238087E0,-4.4687492E-1,-1.5426E-1,6.788312E-1,-1.6396579E-1,1.4488343E0,1.3213228E0,1.4040271E0,1.495344E0,-5.863888E-1,-2.7488983E-1,-1.6886288E-1,5.9328273E-2,5.843956E-1,6.896001E-2,-1.1463864E0,6.210015E-1,7.0359476E-2,8.06489E-2,1.331718E0,1.2638553E0,7.646531E-2,7.0828065E-2,1.4424404E0,7.996299E-2,-2.8639687E-2,-7.704782E-2,-1.5218669E-2,4.911895E-2,-2.3393217E-2,-6.1439048E-3,5.905074E-2,2.1059187E-2,-3.1313773E-2,-9.5163755E-2,1.1108361E-2,4.5353517E-2,6.918482E-2,6.7598015E-2,7.109765E-2,5.7515293E-2,7.0707954E-2,7.652616E-2],"categories":[],"categories_nodes":[],"categories_segments":[],"categories_sizes":[],"default_left":[0,0,0,0,0,0,0,0,0,0,0,0,0,0,0,0,0,0,0,0,0,0,0,0,0,0,0,0,0,0,0,0,0,0,0,0,0,0,0,0,0,0,0,0,0,0,0,0,0],"id":8,"left_children":[1,3,5,7,9,11,13,15,17,19,21,23,25,27,29,31,33,35,-1,37,-1,39,41,-1,-1,43,45,-1,-1,47,-1,-1,-1,-1,-1,-1,-1,-1,-1,-1,-1,-1,-1,-1,-1,-1,-1,-1,-1],"loss_changes":[6.9621515E2,5.6635345E1,4.746704E-1,3.142894E1,1.6544752E1,3.0529785E-1,1.9763184E-1,2.3417404E1,1.1311346E1,4.675129E0,2.6254892E1,2.0116043E-1,5.9906006E-2,1.6445923E-1,1.0786438E-1,1.2522781E1,1.2617626E1,8.164673E0,0E0,6.3544903E0,0E0,5.7776566E0,2.039493E0,0E0,0E0,5.065918E-3,3.1529236E-1,0E0,0E0,4.695511E-2,0E0,0E0,0E0,0E0,0E0,0E0,0E0,0E0,0E0,0E0,0E0,0E0,0E0,0E0,0E0,0E0,0E0,0E0,0E0],"parents":[2147483647,0,0,1,1,2,2,3,3,4,4,5,5,6,6,7,7,8,8,9,9,10,10,11,11,12,12,13,13,14,14,15,15,16,16,17,17,19,19,21,21,22,22,25,25,26,26,29,29],"right_children":[2,4,6,8,10,12,14,16,18,20,22,24,26,28,30,32,34,36,-1,38,-1,40,42,-1,-1,44,46,-1,-1,48,-1,-1,-1,-1,-1,-1,-1,-1,-1,-1,-1,-1,-1,-1,-1,-1,-1,-1,-1],"split_conditions":[1E0,1E0,1E0,1E0,1E0,1E0,1E0,1.5336542E-1,1E0,1.0820085E0,7.5978495E-2,1E0,1E0,1E0,1E0,1E0,3.5583901E0,-7.752777E-1,5.9328273E-2,-6.9789076E-1,6.896001E-2,-6.2050384E-1,6.950739E-1,7.0359476E-2,8.06489E-2,1E0,1E0,7.646531E-2,7.0828065E-2,1E0,7.996299E-2,-2.8639687E-2,-7.704782E-2,-1.5218669E-2,4.911895E-2,-2.3393217E-2,-6.1439048E-3,5.905074E-2,2.1059187E-2,-3.1313773E-2,-9.5163755E-2,1.1108361E-2,4.5353517E-2,6.918482E-2,6.7598015E-2,7.109765E-2,5.7515293E-2,7.0707954E-2,7.652616E-2],"split_indices":[20,10,2,24,18,24,5,1,31,1,1,5,5,24,27,13,1,1,0,1,0,1,1,0,0,27,10,0,0,24,0,0,0,0,0,0,0,0,0,0,0,0,0,0,0,0,0,0,0],"split_type":[0,0,0,0,0,0,0,0,0,0,0,0,0,0,0,0,0,0,0,0,0,0,0,0,0,0,0,0,0,0,0,0,0,0,0,0,0,0,0,0,0,0,0,0,0,0,0,0,0],"sum_hessian":[1.9646691E3,1.6722041E3,2.9246497E2,1.56443E3,1.07774055E2,1.4318614E2,1.4927882E2,9.760753E2,5.8835474E2,7.373512E1,3.403893E1,2.3329226E1,1.1985692E2,1.1701264E2,3.226618E1,5.3889886E2,4.3717648E2,5.81906E2,6.4486895E0,6.46633E1,9.071819E0,1.5119199E1,1.8919731E1,1.5249926E1,8.0793E0,1.0140841E2,1.8448507E1,1.7016537E1,9.99961E1,1.8605139E1,1.366104E1,5.2459973E2,1.42991085E1,4.2909174E2,8.084753E0,8.343383E1,4.984722E2,1.4909313E1,4.975399E1,8.685993E0,6.4332056E0,7.5543056E0,1.1365426E1,2.297309E1,7.843532E1,9.461127E0,8.98738E0,9.378342E0,9.226797E0],"tree_param":{"num_deleted":"0","num_feature":"48","num_nodes":"49","size_leaf_vector":"1"}},{"base_weights":[3.1461408E-3,-2.2835353E-1,1.0654801E0,1.5252666E-1,-4.413698E-1,1.2144196E0,4.8626184E-1,1.3382709E0,1.1048878E-1,-4.8661458E-1,9.4667035E-1,1.2868581E0,8.195137E-1,2.2359116E-1,9.1682255E-1,6.6834025E-2,6.9428585E-2,9.4492465E-2,7.513732E-2,-4.7705865E-1,-9.272417E-2,5.3372115E-2,4.53328E-2,1.2968264E0,4.920096E-2,1.2128314E0,2.8892285E-1,8.883614E-2,4.3131936E-1,4.2695142E-2,4.9083788E-2,3.4901365E-3,3.2391787E-2,-1.1791104E-2,-2.5217034E-2,6.701819E-2,5.8987882E-2,5.3538397E-2,7.130372E-2,7.962112E-4,3.2460302E-2,1.2490375E-2,-9.1415894E-4,7.274648E-4,4.2054698E-2],"categories":[],"categories_nodes":[],"categories_segments":[],"categories_sizes":[],"default_left":[0,0,0,0,0,0,0,0,0,0,0,0,0,0,0,0,0,0,0,0,0,0,0,0,0,0,0,0,0,0,0,0,0,0,0,0,0,0,0,0,0,0,0,0,0],"id":9,"left_children":[1,3,5,7,9,11,13,15,17,19,21,23,25,27,29,-1,-1,31,-1,33,-1,-1,-1,35,-1,37,39,41,43,-1,-1,-1,-1,-1,-1,-1,-1,-1,-1,-1,-1,-1,-1,-1,-1],"loss_changes":[4.8400262E2,1.3110541E2,3.0371674E1,2.888541E1,6.5082596E1,8.003967E0,8.142979E0,4.6157837E-4,1.2188953E1,1.2749939E1,1.8140411E-1,7.5180054E-1,9.057957E0,1.2509806E0,9.124565E-2,0E0,0E0,7.7993073E0,0E0,4.1845703E0,0E0,0E0,0E0,5.204468E-1,0E0,7.421112E-1,1.7528943E0,4.5260775E-1,2.880097E0,0E0,0E0,0E0,0E0,0E0,0E0,0E0,0E0,0E0,0E0,0E0,0E0,0E0,0E0,0E0,0E0],"parents":[2147483647,0,0,1,1,2,2,3,3,4,4,5,5,6,6,7,7,8,8,9,9,10,10,11,11,12,12,13,13,14,14,17,17,19,19,23,23,25,25,26,26,27,27,28,28],"right_children":[2,4,6,8,10,12,14,16,18,20,22,24,26,28,30,-1,-1,32,-1,34,-1,-1,-1,36,-1,38,40,42,44,-1,-1,-1,-1,-1,-1,-1,-1,-1,-1,-1,-1,-1,-1,-1,-1],"split_conditions":[1E0,1E0,1E0,1E0,1E0,1E0,1E0,1E0,1E0,1E0,1E0,1E0,1E0,1E0,1E0,6.6834025E-2,6.9428585E-2,1E0,7.513732E-2,1E0,-9.272417E-2,5.3372115E-2,4.53328E-2,1E0,4.920096E-2,1E0,1E0,1E0,1E0,4.2695142E-2,4.9083788E-2,3.4901365E-3,3.2391787E-2,-1.1791104E-2,-2.5217034E-2,6.701819E-2,5.8987882E-2,5.3538397E-2,7.130372E-2,7.962112E-4,3.2460302E-2,1.2490375E-2,-9.1415894E-4,7.274648E-4,4.2054698E-2],"split_indices":[10,29,29,5,12,19,12,2,12,43,2,13,11,5,2,0,0,43,0,11,0,0,0,5,0,17,27,2,2,0,0,0,0,0,0,0,0,0,0,0,0,0,0,0,0],"split_type":[0,0,0,0,0,0,0,0,0,0,0,0,0,0,0,0,0,0,0,0,0,0,0,0,0,0,0,0,0,0,0,0,0,0,0,0,0,0,0,0,0,0,0,0,0],"sum_hessian":[1.9680356E3,1.6159034E3,3.5213217E2,5.7958075E2,1.0363226E3,2.800999E2,7.2032265E1,1.983924E1,5.597415E2,1.0036125E3,3.2710205E1,2.3667348E2,4.342644E1,4.4745213E1,2.7287056E1,8.789155E0,1.1050084E1,5.5324786E2,6.4936547E0,9.964604E2,7.1520495E0,1.2082787E1,2.062742E1,2.2956664E2,7.106839E0,2.4934376E1,1.8492064E1,2.7150206E1,1.7595007E1,9.848166E0,1.7438889E1,5.277573E2,2.5490517E1,6.470578E1,9.3175464E2,2.0556857E2,2.3998068E1,1.3224598E1,1.1709779E1,1.035236E1,8.139704E0,1.1043832E1,1.6106373E1,8.53832E0,9.056686E0],"tree_param":{"num_deleted":"0","num_feature":"48","num_nodes":"45","size_leaf_vector":"1"}},{"base_weights":[6.240845E-3,-2.0969771E-1,1.3056926E0,3.1179532E-1,-2.9009783E-1,1.3392029E0,1.0052243E0,7.2847384E-1,7.29289E-2,-6.2295896E-1,-2.3134716E-1,1.3621782E0,1.2323191E0,3.789922E-2,1.1880066E0,1.0522006E0,5.1836485E-1,-2.3201033E-3,4.7177248E-2,-4.036423E-3,-7.204365E-1,-3.1516352E-1,-8.06818E-2,1.4282025E0,1.3425714E0,1.1760331E0,7.8010604E-2,6.6089615E-2,5.2727517E-2,3.6530893E-2,6.258323E-2,4.7030468E-2,1.4846809E-2,4.8065476E-2,-4.283445E-3,-1.0894449E-2,2.171405E-2,-3.55321E-2,-6.746773E-2,1.1485601E-2,-1.8518472E-2,1.5529926E-2,-6.4906855E-3,7.462289E-2,6.812667E-2,7.5217694E-2,6.7920946E-2,5.5773847E-2,6.758852E-2],"categories":[],"categories_nodes":[],"categories_segments":[],"categories_sizes":[],"default_left":[0,0,0,0,0,0,0,0,0,0,0,0,0,0,0,0,0,0,0,0,0,0,0,0,0,0,0,0,0,0,0,0,0,0,0,0,0,0,0,0,0,0,0,0,0,0,0,0,0],"id":10,"left_children":[1,3,5,7,9,11,13,15,17,19,21,23,25,-1,27,29,31,33,-1,35,37,39,41,43,45,47,-1,-1,-1,-1,-1,-1,-1,-1,-1,-1,-1,-1,-1,-1,-1,-1,-1,-1,-1,-1,-1,-1,-1],"loss_changes":[5.478689E2,7.019807E1,2.7911987E0,2.2256508E1,2.836496E1,6.029358E-1,1.33288E0,5.536499E0,9.111692E0,1.3126816E1,1.5569313E1,2.538147E-1,7.271118E-1,0E0,2.6264763E-1,1.8703041E0,4.5282707E0,1.0062882E1,0E0,2.664007E0,2.7255783E0,2.0421844E1,7.8911505E0,1.3660431E-1,2.2973633E-1,4.4914627E-1,0E0,0E0,0E0,0E0,0E0,0E0,0E0,0E0,0E0,0E0,0E0,0E0,0E0,0E0,0E0,0E0,0E0,0E0,0E0,0E0,0E0,0E0,0E0],"parents":[2147483647,0,0,1,1,2,2,3,3,4,4,5,5,6,6,7,7,8,8,9,9,10,10,11,11,12,12,14,14,15,15,16,16,17,17,19,19,20,20,21,21,22,22,23,23,24,24,25,25],"right_children":[2,4,6,8,10,12,14,16,18,20,22,24,26,-1,28,30,32,34,-1,36,38,40,42,44,46,48,-1,-1,-1,-1,-1,-1,-1,-1,-1,-1,-1,-1,-1,-1,-1,-1,-1,-1,-1,-1,-1,-1,-1],"split_conditions":[1E0,1E0,2.085644E0,1E0,-8.526646E-1,9.681895E-1,2.3339674E0,-7.879536E-2,1.3141693E0,-1.3288006E0,1E0,1E0,1E0,3.789922E-2,2.8306139E0,1E0,1E0,-1.2395992E0,4.7177248E-2,-1.3908813E0,5.957046E-1,1E0,1E0,-8.71843E-2,1E0,1.7131592E0,7.8010604E-2,6.6089615E-2,5.2727517E-2,3.6530893E-2,6.258323E-2,4.7030468E-2,1.4846809E-2,4.8065476E-2,-4.283445E-3,-1.0894449E-2,2.171405E-2,-3.55321E-2,-6.746773E-2,1.1485601E-2,-1.8518472E-2,1.5529926E-2,-6.4906855E-3,7.462289E-2,6.812667E-2,7.5217694E-2,6.7920946E-2,5.5773847E-2,6.758852E-2],"split_indices":[20,11,0,9,1,0,0,1,1,0,24,24,9,0,0,5,5,1,0,0,0,9,42,0,11,0,0,0,0,0,0,0,0,0,0,0,0,0,0,0,0,0,0,0,0,0,0,0,0],"split_type":[0,0,0,0,0,0,0,0,0,0,0,0,0,0,0,0,0,0,0,0,0,0,0,0,0,0,0,0,0,0,0,0,0,0,0,0,0,0,0,0,0,0,0,0,0,0,0,0,0],"sum_hessian":[1.9524624E3,1.6742422E3,2.7822018E2,2.2363736E2,1.4506049E3,2.5028812E2,2.7932072E1,8.1482346E1,1.4215501E2,2.1761272E2,1.2329922E3,2.0595975E2,4.4328373E1,1.1475502E1,1.645657E1,3.206079E1,4.942155E1,1.3061194E2,1.1543072E1,2.961407E1,1.8799864E2,7.922403E2,4.4075183E2,4.708396E1,1.588758E2,3.727103E1,7.0573416E0,9.706727E0,6.7498426E0,1.0946624E1,2.1114168E1,1.7815792E1,3.160576E1,1.0387E1,1.20224945E2,1.9912529E1,9.701543E0,1.8074744E2,7.2512064E0,6.428791E1,7.279524E2,4.7494545E1,3.932573E2,3.4434635E1,1.2649325E1,1.287823E1,1.4599756E2,2.3915354E1,1.3355675E1],"tree_param":{"num_deleted":"0","num_feature":"48","num_nodes":"49","size_leaf_vector":"1"}},{"base_weights":[2.0200847E-2,-1.8702522E-1,1.2910011E0,1.5553835E-1,-3.7934425E-1,1.2387708E0,1.3391585E0,1.0491554E-1,8.6187714E-1,-4.5622638E-1,8.6777735E-1,1.2153367E0,7.068417E-2,1.3223698E0,1.4002832E0,-6.488016E-2,1.21078126E-1,-5.7516275E-3,1.0959326E0,-8.4844637E-1,-3.9247105E-1,1.255559E0,7.3998827E-1,6.685141E-2,1.1975794E0,7.16189E-2,1.3069242E0,1.4657382E0,6.299968E-2,4.6564285E-2,5.3467155E-3,4.4911135E-2,6.256779E-2,-3.6590714E-2,-5.4984335E-2,-2.7168388E-2,-9.279981E-3,6.808924E-2,5.9983835E-2,4.199008E-2,1.2024062E-2,6.1494403E-2,5.7090055E-2,7.247709E-2,6.620759E-2,7.216831E-2,7.679799E-2],"categories":[],"categories_nodes":[],"categories_segments":[],"categories_sizes":[],"default_left":[0,0,0,0,0,0,0,0,0,0,0,0,0,0,0,0,0,0,0,0,0,0,0,0,0,0,0,0,0,0,0,0,0,0,0,0,0,0,0,0,0,0,0,0,0,0,0],"id":11,"left_children":[1,3,5,7,9,11,13,15,17,19,21,23,-1,25,27,-1,29,-1,31,33,35,37,39,-1,41,-1,43,45,-1,-1,-1,-1,-1,-1,-1,-1,-1,-1,-1,-1,-1,-1,-1,-1,-1,-1,-1],"loss_changes":[5.145358E2,1.10675766E2,6.7749023E-1,2.1594597E1,1.0315828E2,4.3907166E-1,1.3371277E-1,1.2534377E1,9.21641E0,2.5337433E1,3.087738E0,1.7936707E-1,0E0,1.2760925E-1,3.199463E-1,0E0,7.185897E0,0E0,9.060745E-1,4.257492E0,2.5685776E1,8.642578E-2,1.9598827E0,0E0,4.588318E-2,0E0,8.935547E-2,3.0540466E-2,0E0,0E0,0E0,0E0,0E0,0E0,0E0,0E0,0E0,0E0,0E0,0E0,0E0,0E0,0E0,0E0,0E0,0E0,0E0],"parents":[2147483647,0,0,1,1,2,2,3,3,4,4,5,5,6,6,7,7,8,8,9,9,10,10,11,11,13,13,14,14,16,16,18,18,19,19,20,20,21,21,22,22,24,24,26,26,27,27],"right_children":[2,4,6,8,10,12,14,16,18,20,22,24,-1,26,28,-1,30,-1,32,34,36,38,40,-1,42,-1,44,46,-1,-1,-1,-1,-1,-1,-1,-1,-1,-1,-1,-1,-1,-1,-1,-1,-1,-1,-1],"split_conditions":[1E0,1E0,1E0,1E0,1E0,1E0,1E0,-2.555177E0,-3.1095612E-1,-8.526646E-1,-6.2050384E-1,1E0,7.068417E-2,1E0,1E0,-6.488016E-2,-2.1682422E0,-5.7516275E-3,-1.4084318E-3,-1.0848254E0,1E0,1E0,1E0,6.685141E-2,1E0,7.16189E-2,1E0,1E0,6.299968E-2,4.6564285E-2,5.3467155E-3,4.4911135E-2,6.256779E-2,-3.6590714E-2,-5.4984335E-2,-2.7168388E-2,-9.279981E-3,6.808924E-2,5.9983835E-2,4.199008E-2,1.2024062E-2,6.1494403E-2,5.7090055E-2,7.247709E-2,6.620759E-2,7.216831E-2,7.679799E-2],"split_indices":[20,29,2,7,12,9,5,1,1,1,1,24,0,24,28,0,1,0,1,1,24,9,18,0,5,0,42,24,0,0,0,0,0,0,0,0,0,0,0,0,0,0,0,0,0,0,0],"split_type":[0,0,0,0,0,0,0,0,0,0,0,0,0,0,0,0,0,0,0,0,0,0,0,0,0,0,0,0,0,0,0,0,0,0,0,0,0,0,0,0,0,0,0,0,0,0,0],"sum_hessian":[1.9538455E3,1.6799072E3,2.739383E2,6.040116E2,1.0758955E3,1.3147267E2,1.424656E2,5.63624E2,4.0387608E1,1.0134242E3,6.247133E1,1.1335957E2,1.8113102E1,1.11848114E2,3.0617489E1,6.5379343E0,5.5708606E2,7.818976E0,3.256863E1,1.4168826E2,8.7173596E2,1.5473099E1,4.699823E1,1.7854324E1,9.550525E1,1.7840548E1,9.400757E1,2.1924215E1,8.6932745E0,1.1241182E1,5.458449E2,1.2263112E1,2.030552E1,9.0034515E1,5.165375E1,5.237947E2,3.4794128E2,7.7704806E0,7.7026176E0,4.036271E1,6.6355233E0,8.721715E1,8.288103E0,7.2617083E0,8.674586E1,9.5331135E0,1.2391102E1],"tree_param":{"num_deleted":"0","num_feature":"48","num_nodes":"47","size_leaf_vector":"1"}},{"base_weights":[-6.8919123E-3,-2.08521E-1,9.4356114E-1,1.4719291E-1,-4.078722E-1,3.748993E-1,1.087042E0,1.1225301E-1,1.2809287E0,2.2136687E-1,-4.749139E-1,1.0049721E0,-4.7775266E-1,1.1807837E0,3.9732623E-1,-1.798476E-1,2.1511169E-1,5.9922744E-2,7.41902E-2,5.5038756E-1,-2.5827262E-1,-2.5223792E-1,-6.13546E-1,8.510337E-1,6.812033E-2,-7.686224E-1,-2.2552784E-3,1.2272795E0,8.069459E-1,-4.1140243E-2,7.674091E-1,3.080095E-2,-1.38925295E-2,9.912078E-3,6.192353E-2,1.9034302E-2,4.211823E-2,-2.0416386E-3,-6.58895E-2,-4.0801104E-2,-6.3478868E-3,-6.2461592E-2,-2.966954E-2,7.563736E-2,3.0851483E-2,-1.1589358E-2,-5.559245E-2,6.585578E-2,5.3654745E-2,6.1175395E-2,6.7185774E-4,2.509137E-2,-2.5032831E-2,5.202223E-2,2.455168E-2],"categories":[],"categories_nodes":[],"categories_segments":[],"categories_sizes":[],"default_left":[0,0,0,0,0,0,0,0,0,0,0,0,0,0,0,0,0,0,0,0,0,0,0,0,0,0,0,0,0,0,0,0,0,0,0,0,0,0,0,0,0,0,0,0,0,0,0,0,0,0,0,0,0,0,0],"id":12,"left_children":[1,3,5,7,9,11,13,15,17,19,21,23,25,27,29,31,33,-1,-1,35,37,39,41,43,-1,45,-1,47,49,51,53,-1,-1,-1,-1,-1,-1,-1,-1,-1,-1,-1,-1,-1,-1,-1,-1,-1,-1,-1,-1,-1,-1,-1,-1],"loss_changes":[3.7175302E2,1.1348651E2,2.769522E1,2.276368E1,4.3266434E1,3.6754536E1,1.752182E1,1.6753044E1,3.0508995E-1,1.5584808E1,2.8609299E1,1.9886475E0,3.6635108E0,4.1398315E0,5.2668595E0,1.050846E1,8.591436E0,0E0,0E0,2.852705E0,9.053171E0,2.4880919E1,1.1206055E1,4.1665077E0,0E0,3.0165787E0,0E0,2.348938E0,8.211178E0,3.5559928E0,1.2640314E0,0E0,0E0,0E0,0E0,0E0,0E0,0E0,0E0,0E0,0E0,0E0,0E0,0E0,0E0,0E0,0E0,0E0,0E0,0E0,0E0,0E0,0E0,0E0,0E0],"parents":[2147483647,0,0,1,1,2,2,3,3,4,4,5,5,6,6,7,7,8,8,9,9,10,10,11,11,12,12,13,13,14,14,15,15,16,16,19,19,20,20,21,21,22,22,23,23,25,25,27,27,28,28,29,29,30,30],"right_children":[2,4,6,8,10,12,14,16,18,20,22,24,26,28,30,32,34,-1,-1,36,38,40,42,44,-1,46,-1,48,50,52,54,-1,-1,-1,-1,-1,-1,-1,-1,-1,-1,-1,-1,-1,-1,-1,-1,-1,-1,-1,-1,-1,-1,-1,-1],"split_conditions":[1E0,1E0,-1.4084318E-3,1E0,1E0,1E0,1E0,-5.838308E-1,7.198663E-1,1E0,1E0,1E0,1E0,7.5978495E-2,1.6113894E-1,-1.3288006E0,1E0,5.9922744E-2,7.41902E-2,3.0813926E-1,9.061087E-1,-6.2050384E-1,1E0,-1.0074384E0,6.812033E-2,-7.7007324E-1,-2.2552784E-3,9.681895E-1,1E0,1E0,1E0,3.080095E-2,-1.38925295E-2,9.912078E-3,6.192353E-2,1.9034302E-2,4.211823E-2,-2.0416386E-3,-6.58895E-2,-4.0801104E-2,-6.3478868E-3,-6.2461592E-2,-2.966954E-2,7.563736E-2,3.0851483E-2,-1.1589358E-2,-5.559245E-2,6.585578E-2,5.3654745E-2,6.1175395E-2,6.7185774E-4,2.509137E-2,-2.5032831E-2,5.202223E-2,2.455168E-2],"split_indices":[10,29,1,7,11,11,29,0,0,13,23,28,5,1,0,0,31,0,0,1,0,1,42,1,0,0,0,0,5,23,19,0,0,0,0,0,0,0,0,0,0,0,0,0,0,0,0,0,0,0,0,0,0,0,0],"split_type":[0,0,0,0,0,0,0,0,0,0,0,0,0,0,0,0,0,0,0,0,0,0,0,0,0,0,0,0,0,0,0,0,0,0,0,0,0,0,0,0,0,0,0,0,0,0,0,0,0,0,0,0,0,0,0],"sum_hessian":[1.9398674E3,1.60037E3,3.3949747E2,5.747666E2,1.0256034E3,6.840704E1,2.7109042E2,5.575879E2,1.7178694E1,9.8745926E1,9.268574E2,3.9339703E1,2.9067339E1,2.3864883E2,3.244159E1,1.4520393E2,4.1238397E2,1.0643685E1,6.5350084E0,5.8572437E1,4.017349E1,3.5564133E2,5.712161E2,2.6834715E1,1.2504988E1,1.739118E1,1.1676159E1,2.1223839E2,2.6410446E1,1.4846286E1,1.7595304E1,1.5312086E1,1.2989185E2,4.0394113E2,8.442827E0,3.5611004E1,2.2961437E1,3.3169437E1,7.004052E0,6.734089E1,2.8830045E2,2.8578173E1,5.4263794E2,7.5301213E0,1.9304594E1,6.4739623E0,1.0917218E1,1.5611743E2,5.6120945E1,1.7679071E1,8.731376E0,6.7895465E0,8.05674E0,9.349787E0,8.245518E0],"tree_param":{"num_deleted":"0","num_feature":"48","num_nodes":"55","size_leaf_vector":"1"}},{"base_weights":[1.4368042E-2,-1.6937278E-1,1.2053317E0,-2.1401913E-1,8.4039897E-1,1.2620503E0,1.0445254E0,-3.5413694E-1,1.3770124E-1,9.902226E-1,6.2868726E-1,1.2427146E0,1.3328066E0,9.615508E-1,1.1622635E0,-1.4340878E-1,-4.9254546E-1,9.792823E-2,5.904462E-1,6.917539E-1,1.1630615E0,8.615977E-1,-7.1632457E-3,7.099665E-2,1.2299266E0,1.3724635E0,6.2454212E-2,8.331334E-1,1.1547372E0,1.2374383E0,5.1203966E-2,-2.8854579E-2,-4.109902E-3,-2.634602E-2,3.755126E-2,1.7919863E-2,7.983251E-4,6.575716E-2,-7.8709945E-3,5.708945E-2,1.38293E-2,4.801117E-2,6.5476455E-2,2.1236582E-2,5.660479E-2,6.2191866E-2,7.090193E-2,7.209999E-2,6.921238E-2,5.0681166E-2,3.050143E-2,5.422597E-2,6.4384654E-2,5.7632614E-2,7.108572E-2],"categories":[],"categories_nodes":[],"categories_segments":[],"categories_sizes":[],"default_left":[0,0,0,0,0,0,0,0,0,0,0,0,0,0,0,0,0,0,0,0,0,0,0,0,0,0,0,0,0,0,0,0,0,0,0,0,0,0,0,0,0,0,0,0,0,0,0,0,0,0,0,0,0,0,0],"id":13,"left_children":[1,3,5,7,9,11,13,15,17,19,21,23,25,27,29,31,33,35,37,39,41,43,-1,-1,45,47,-1,49,51,53,-1,-1,-1,-1,-1,-1,-1,-1,-1,-1,-1,-1,-1,-1,-1,-1,-1,-1,-1,-1,-1,-1,-1,-1,-1],"loss_changes":[4.2463974E2,7.57885E1,2.3556824E0,7.934302E1,2.2515526E0,2.507019E-1,6.520157E-1,3.3577667E1,8.256762E0,2.1422577E0,5.2887306E0,2.7420044E-1,1.6586304E-1,9.771309E-1,3.2419968E-1,1.2108424E1,2.024408E1,8.783827E0,1.9254951E1,2.7425485E0,6.939888E-1,2.4931965E0,0E0,0E0,2.3706055E-1,6.916046E-3,0E0,8.93219E-1,1.460228E-1,3.0730057E-1,0E0,0E0,0E0,0E0,0E0,0E0,0E0,0E0,0E0,0E0,0E0,0E0,0E0,0E0,0E0,0E0,0E0,0E0,0E0,0E0,0E0,0E0,0E0,0E0,0E0],"parents":[2147483647,0,0,1,1,2,2,3,3,4,4,5,5,6,6,7,7,8,8,9,9,10,10,11,11,12,12,13,13,14,14,15,15,16,16,17,17,18,18,19,19,20,20,21,21,24,24,25,25,27,27,28,28,29,29],"right_children":[2,4,6,8,10,12,14,16,18,20,22,24,26,28,30,32,34,36,38,40,42,44,-1,-1,46,48,-1,50,52,54,-1,-1,-1,-1,-1,-1,-1,-1,-1,-1,-1,-1,-1,-1,-1,-1,-1,-1,-1,-1,-1,-1,-1,-1,-1],"split_conditions":[1E0,1E0,9.681895E-1,1E0,1E0,1E0,1E0,1E0,1E0,-4.5966917E-1,-2.510349E-2,1E0,-8.71843E-2,2.2718866E0,2.085644E0,-7.752777E-1,2.629747E0,1E0,1E0,-6.2050384E-1,-2.335692E-1,1E0,-7.1632457E-3,7.099665E-2,8.440279E-1,1E0,6.2454212E-2,1.7752401E0,2.6443715E0,1.7131592E0,5.1203966E-2,-2.8854579E-2,-4.109902E-3,-2.634602E-2,3.755126E-2,1.7919863E-2,7.983251E-4,6.575716E-2,-7.8709945E-3,5.708945E-2,1.38293E-2,4.801117E-2,6.5476455E-2,2.1236582E-2,5.660479E-2,6.2191866E-2,7.090193E-2,7.209999E-2,6.921238E-2,5.0681166E-2,3.050143E-2,5.422597E-2,6.4384654E-2,5.7632614E-2,7.108572E-2],"split_indices":[20,12,0,28,10,23,2,23,10,0,0,11,0,0,0,1,1,42,11,1,1,23,0,0,0,27,0,0,0,0,0,0,0,0,0,0,0,0,0,0,0,0,0,0,0,0,0,0,0,0,0,0,0,0,0],"split_type":[0,0,0,0,0,0,0,0,0,0,0,0,0,0,0,0,0,0,0,0,0,0,0,0,0,0,0,0,0,0,0,0,0,0,0,0,0,0,0,0,0,0,0,0,0,0,0,0,0,0,0,0,0,0,0],"sum_hessian":[1.9404941E3,1.6811305E3,2.593637E2,1.6099524E3,7.117809E1,1.9171E2,6.765369E1,1.1513054E3,4.5864697E2,4.166789E1,2.9510206E1,1.5063286E2,4.1077156E1,3.9713356E1,2.7940332E1,4.564232E2,6.9488226E2,4.2161786E2,3.7029118E1,1.529122E1,2.6376667E1,2.2653143E1,6.857065E0,1.1904493E1,1.3872836E2,3.007787E1,1.0999286E1,2.387257E1,1.5840783E1,1.8943333E1,8.997E0,5.9174618E1,3.9724857E2,6.81724E2,1.3158238E1,1.0339405E2,3.182238E2,1.9113504E1,1.7915611E1,7.5844474E0,7.7067723E0,9.262909E0,1.7113758E1,8.099517E0,1.4553625E1,1.2962125E2,9.107112E0,8.508267E0,2.1569603E1,1.4201964E1,9.670607E0,8.536397E0,7.304387E0,1.1198249E1,7.745085E0],"tree_param":{"num_deleted":"0","num_feature":"48","num_nodes":"55","size_leaf_vector":"1"}},{"base_weights":[-6.213065E-3,9.4633335E-1,-1.6512492E-1,-1.712736E-1,1.0960289E0,3.0059826E-1,-2.1965168E-1,-3.2633433E-1,1.6873924E-2,1.1437554E0,2.7009312E-3,6.6655886E-1,5.914321E-3,-2.615704E-1,2.081017E-1,7.6514683E-3,-5.9605306E-1,1.1851232E0,8.5947156E-1,8.2856536E-1,1.4544447E-2,-2.274998E-1,4.1989246E-1,-3.5871962E-1,-1.50785325E-2,-1.9421047E-1,4.7053584E-1,-2.286588E-2,-3.9717127E-2,6.000014E-2,6.9484375E-2,3.381121E-2,6.1818387E-2,4.833086E-2,7.275857E-3,-2.1411404E-2,2.0437025E-2,8.322414E-3,-2.7974172E-2,1.4138915E-2,4.5236737E-2,-3.2296896E-2,-1.5865257E-2,6.6282414E-4,-3.857843E-2,-2.8730502E-2,-1.0098448E-3,4.7932696E-2,1.2497193E-2],"categories":[],"categories_nodes":[],"categories_segments":[],"categories_sizes":[],"default_left":[0,0,0,0,0,0,0,0,0,0,0,0,0,0,0,0,0,0,0,0,0,0,0,0,0,0,0,0,0,0,0,0,0,0,0,0,0,0,0,0,0,0,0,0,0,0,0,0,0],"id":14,"left_children":[1,3,5,7,9,11,13,15,-1,17,-1,19,21,23,25,-1,27,29,31,33,35,37,39,41,43,45,47,-1,-1,-1,-1,-1,-1,-1,-1,-1,-1,-1,-1,-1,-1,-1,-1,-1,-1,-1,-1,-1,-1],"loss_changes":[2.90246E2,4.5868454E1,4.173089E1,2.5205564E0,1.2032471E1,1.8571693E1,2.6378174E1,3.1802812E0,0E0,2.7103577E0,0E0,8.111973E0,9.220337E0,3.208239E1,1.3862819E1,0E0,4.2170763E-1,3.2318115E-1,2.0288715E0,4.997982E0,2.5627494E0,7.6424885E0,2.2887383E0,1.2599144E1,7.878638E0,3.3320894E0,8.40066E0,0E0,0E0,0E0,0E0,0E0,0E0,0E0,0E0,0E0,0E0,0E0,0E0,0E0,0E0,0E0,0E0,0E0,0E0,0E0,0E0,0E0,0E0],"parents":[2147483647,0,0,1,1,2,2,3,3,4,4,5,5,6,6,7,7,9,9,11,11,12,12,13,13,14,14,16,16,17,17,18,18,19,19,20,20,21,21,22,22,23,23,24,24,25,25,26,26],"right_children":[2,4,6,8,10,12,14,16,-1,18,-1,20,22,24,26,-1,28,30,32,34,36,38,40,42,44,46,48,-1,-1,-1,-1,-1,-1,-1,-1,-1,-1,-1,-1,-1,-1,-1,-1,-1,-1,-1,-1,-1,-1],"split_conditions":[1E0,-7.879536E-2,1E0,1E0,1E0,1E0,1E0,-1.0074384E0,1.6873924E-2,1E0,2.7009312E-3,1E0,1E0,1E0,-1.5618227E-1,7.6514683E-3,-3.8834304E-1,1E0,1E0,1.5336542E-1,1.5336542E-1,5.403E-1,1.3915561E0,-8.526646E-1,1.9332646E0,-9.300515E-1,7.5978495E-2,-2.286588E-2,-3.9717127E-2,6.000014E-2,6.9484375E-2,3.381121E-2,6.1818387E-2,4.833086E-2,7.275857E-3,-2.1411404E-2,2.0437025E-2,8.322414E-3,-2.7974172E-2,1.4138915E-2,4.5236737E-2,-3.2296896E-2,-1.5865257E-2,6.6282414E-4,-3.857843E-2,-2.8730502E-2,-1.0098448E-3,4.7932696E-2,1.2497193E-2],"split_indices":[5,1,9,28,18,8,27,1,0,19,0,18,28,28,1,0,1,47,28,1,1,1,1,1,1,1,1,0,0,0,0,0,0,0,0,0,0,0,0,0,0,0,0,0,0,0,0,0,0],"split_type":[0,0,0,0,0,0,0,0,0,0,0,0,0,0,0,0,0,0,0,0,0,0,0,0,0,0,0,0,0,0,0,0,0,0,0,0,0,0,0,0,0,0,0,0,0,0,0,0,0],"sum_hessian":[1.917459E3,2.7414624E2,1.6433127E3,3.238019E1,2.4176605E2,1.7222682E2,1.4710858E3,2.474298E1,7.6372128E0,2.3118527E2,1.05807705E1,7.681687E1,9.540996E1,1.3397971E3,1.3128877E2,8.9425335E0,1.5800446E1,2.0180194E2,2.9383337E1,6.152465E1,1.5292217E1,6.100655E1,3.4403408E1,9.610198E2,3.787773E2,5.1827137E1,7.946164E1,8.732813E0,7.067632E0,1.9163478E2,1.0167164E1,1.8849789E1,1.0533549E1,5.2457836E1,9.066814E0,7.193187E0,8.09903E0,2.7501265E1,3.3505283E1,2.6347214E1,8.056194E0,1.4275218E2,8.182676E2,3.6495035E2,1.3826965E1,1.6634672E1,3.5192467E1,2.58156E1,5.3646038E1],"tree_param":{"num_deleted":"0","num_feature":"48","num_nodes":"49","size_leaf_vector":"1"}},{"base_weights":[3.6389008E-3,-1.670783E-1,1.1812227E0,1.17521174E-1,-3.2752484E-1,1.2336565E0,1.0427014E0,-1.0712156E-1,2.4334803E-1,-1.5779115E-1,-4.41747E-1,1.2078648E0,1.3209013E0,9.8396194E-1,6.8262756E-2,1.9121176E-1,-2.844309E-1,9.2415476E-1,1.84482E-1,-1.889389E-1,3.014027E-1,1.1222453E-1,-4.9909663E-1,1.2236004E0,5.1597796E-2,1.33914E0,6.2381886E-2,1.0461836E0,8.719253E-1,3.479924E-2,-9.4895554E-4,-2.4294602E-2,-7.3805028E-3,5.6189388E-2,2.621978E-2,1.051076E-2,-3.7744705E-2,-7.7397036E-3,-3.8195956E-2,2.7493417E-2,-1.9345649E-2,1.7214699E-2,-2.8425012E-2,-2.37462E-2,-7.607716E-2,6.1293397E-2,7.24281E-2,6.721421E-2,7.3073976E-2,4.6072006E-2,5.770346E-2,4.0215157E-2,5.3362913E-2],"categories":[],"categories_nodes":[],"categories_segments":[],"categories_sizes":[],"default_left":[0,0,0,0,0,0,0,0,0,0,0,0,0,0,0,0,0,0,0,0,0,0,0,0,0,0,0,0,0,0,0,0,0,0,0,0,0,0,0,0,0,0,0,0,0,0,0,0,0,0,0,0,0],"id":15,"left_children":[1,3,5,7,9,11,13,15,17,19,21,23,25,27,-1,29,31,33,35,37,39,41,43,45,-1,47,-1,49,51,-1,-1,-1,-1,-1,-1,-1,-1,-1,-1,-1,-1,-1,-1,-1,-1,-1,-1,-1,-1,-1,-1,-1,-1],"loss_changes":[3.8537622E2,7.645138E1,1.7531128E0,1.7061466E1,2.0755226E1,3.8482666E-1,1.1451797E0,1.1462974E1,1.5501629E1,6.1598787E0,2.0333076E1,4.113617E-1,6.0585022E-2,3.7991714E-1,0E0,8.317795E0,3.6395931E0,2.228777E0,7.067829E0,8.409479E0,4.4187875E0,9.04373E0,1.9419281E1,5.429077E-1,0E0,5.649185E-2,0E0,4.247017E-1,2.8257084E-1,0E0,0E0,0E0,0E0,0E0,0E0,0E0,0E0,0E0,0E0,0E0,0E0,0E0,0E0,0E0,0E0,0E0,0E0,0E0,0E0,0E0,0E0,0E0,0E0],"parents":[2147483647,0,0,1,1,2,2,3,3,4,4,5,5,6,6,7,7,8,8,9,9,10,10,11,11,12,12,13,13,15,15,16,16,17,17,18,18,19,19,20,20,21,21,22,22,23,23,25,25,27,27,28,28],"right_children":[2,4,6,8,10,12,14,16,18,20,22,24,26,28,-1,30,32,34,36,38,40,42,44,46,-1,48,-1,50,52,-1,-1,-1,-1,-1,-1,-1,-1,-1,-1,-1,-1,-1,-1,-1,-1,-1,-1,-1,-1,-1,-1,-1,-1],"split_conditions":[1E0,1E0,9.681895E-1,-3.9758837E-1,1E0,1E0,1E0,1E0,1E0,2.1477249E0,1E0,1E0,4.71543E-1,2.085644E0,6.8262756E-2,1E0,-8.3215404E-1,7.819471E-1,2.5822906E0,1.5889976E0,6.17687E-1,9.2723465E-1,2.0235634E0,1E0,5.1597796E-2,1E0,6.2381886E-2,1.4027551E0,2.6443715E0,3.479924E-2,-9.4895554E-4,-2.4294602E-2,-7.3805028E-3,5.6189388E-2,2.621978E-2,1.051076E-2,-3.7744705E-2,-7.7397036E-3,-3.8195956E-2,2.7493417E-2,-1.9345649E-2,1.7214699E-2,-2.8425012E-2,-2.37462E-2,-7.607716E-2,6.1293397E-2,7.24281E-2,6.721421E-2,7.3073976E-2,4.6072006E-2,5.770346E-2,4.0215157E-2,5.3362913E-2],"split_indices":[20,29,0,0,23,23,9,23,5,0,9,29,0,0,0,42,0,0,0,0,1,1,0,5,0,9,0,0,0,0,0,0,0,0,0,0,0,0,0,0,0,0,0,0,0,0,0,0,0,0,0,0,0],"split_type":[0,0,0,0,0,0,0,0,0,0,0,0,0,0,0,0,0,0,0,0,0,0,0,0,0,0,0,0,0,0,0,0,0,0,0,0,0,0,0,0,0,0,0,0,0,0,0,0,0,0,0,0,0],"sum_hessian":[1.9169526E3,1.6742344E3,2.4271826E2,6.035831E2,1.0706512E3,1.7604161E2,6.667664E1,2.166924E2,3.8689075E2,4.3068564E2,6.399656E2,1.3592767E2,4.0113934E1,5.5619915E1,1.1056727E1,8.077204E1,1.3592035E2,3.0783468E1,3.561073E2,4.033347E2,2.735094E1,6.003181E1,5.799338E2,1.2583758E2,1.00901E1,3.3795742E1,6.318192E0,3.573009E1,1.9889824E1,2.4194536E1,5.6577503E1,5.7322243E1,7.859811E1,2.1502806E1,9.280663E0,3.4802252E2,8.084763E0,3.7815042E2,2.5184261E1,2.0281803E1,7.0691366E0,4.492584E1,1.5105974E1,5.608364E2,1.9097376E1,1.1287304E2,1.2964539E1,2.7361835E1,6.433905E0,1.3276338E1,2.2453754E1,1.3433735E1,6.456089E0],"tree_param":{"num_deleted":"0","num_feature":"48","num_nodes":"53","size_leaf_vector":"1"}},{"base_weights":[2.8922135E-2,-1.3314204E-1,1.1488787E0,-2.3863514E-1,1.4559183E-1,1.1917492E0,8.9069265E-1,3.409837E-1,-3.229755E-1,4.3344712E-1,4.6033036E-2,1.2203743E0,1.1106753E0,7.3140734E-1,6.0740005E-2,5.8228123E-1,-1.8802498E-1,-6.589079E-1,-2.6491442E-1,8.0485225E-1,1.6494836E-1,-2.1565855E-1,2.6507542E-1,1.3446752E0,1.2018701E0,9.306713E-1,1.1912674E0,6.252926E-2,4.7514784E-1,3.293142E-2,-1.3209316E-2,-6.0877748E-2,-6.8347296E-4,-9.002649E-3,-3.929595E-2,-1.6173393E-2,7.7238036E-3,7.4124925E-2,3.5504397E-2,2.8809473E-2,-1.586517E-3,-3.4051407E-2,-1.9685691E-3,9.352966E-3,4.910409E-2,5.8538254E-2,7.348998E-2,6.0469925E-2,6.712278E-2,4.1837264E-2,5.5848382E-2,5.6074206E-2,6.547811E-2,4.426298E-2,8.594042E-3],"categories":[],"categories_nodes":[],"categories_segments":[],"categories_sizes":[],"default_left":[0,0,0,0,0,0,0,0,0,0,0,0,0,0,0,0,0,0,0,0,0,0,0,0,0,0,0,0,0,0,0,0,0,0,0,0,0,0,0,0,0,0,0,0,0,0,0,0,0,0,0,0,0,0,0],"id":16,"left_children":[1,3,5,7,9,11,13,15,17,19,21,23,25,27,-1,29,31,33,35,37,39,41,43,45,47,49,51,-1,53,-1,-1,-1,-1,-1,-1,-1,-1,-1,-1,-1,-1,-1,-1,-1,-1,-1,-1,-1,-1,-1,-1,-1,-1,-1,-1],"loss_changes":[3.4372263E2,4.8645065E1,2.6410828E0,5.866868E1,1.3015404E1,4.6627808E-1,1.619648E0,1.9460728E1,2.0431519E1,1.1635887E1,1.934588E1,3.3747864E-1,7.6898193E-1,2.813446E0,0E0,5.5515976E0,8.376175E0,8.273689E0,1.9340694E1,3.4521656E0,5.3087006E0,1.2294903E1,1.0473283E1,3.5806274E-1,2.4255371E-1,2.9354668E-1,3.0385208E-1,0E0,1.7623427E0,0E0,0E0,0E0,0E0,0E0,0E0,0E0,0E0,0E0,0E0,0E0,0E0,0E0,0E0,0E0,0E0,0E0,0E0,0E0,0E0,0E0,0E0,0E0,0E0,0E0,0E0],"parents":[2147483647,0,0,1,1,2,2,3,3,4,4,5,5,6,6,7,7,8,8,9,9,10,10,11,11,12,12,13,13,15,15,16,16,17,17,18,18,19,19,20,20,21,21,22,22,23,23,24,24,25,25,26,26,28,28],"right_children":[2,4,6,8,10,12,14,16,18,20,22,24,26,28,-1,30,32,34,36,38,40,42,44,46,48,50,52,-1,54,-1,-1,-1,-1,-1,-1,-1,-1,-1,-1,-1,-1,-1,-1,-1,-1,-1,-1,-1,-1,-1,-1,-1,-1,-1,-1],"split_conditions":[1E0,1E0,1.8373208E0,1E0,1E0,5.957046E-1,2.396048E0,1E0,-8.526646E-1,1E0,1E0,1E0,1E0,1E0,6.0740005E-2,1.5889976E0,-6.4591163E-1,-2.0908554E0,1E0,-9.563157E-1,-6.4591163E-1,-6.4591163E-1,1E0,1E0,2.2321975E-1,1E0,1.0923511E0,6.252926E-2,2.0235634E0,3.293142E-2,-1.3209316E-2,-6.0877748E-2,-6.8347296E-4,-9.002649E-3,-3.929595E-2,-1.6173393E-2,7.7238036E-3,7.4124925E-2,3.5504397E-2,2.8809473E-2,-1.586517E-3,-3.4051407E-2,-1.9685691E-3,9.352966E-3,4.910409E-2,5.8538254E-2,7.348998E-2,6.0469925E-2,6.712278E-2,4.1837264E-2,5.5848382E-2,5.6074206E-2,6.547811E-2,4.426298E-2,8.594042E-3],"split_indices":[20,28,0,11,42,0,0,13,1,47,19,10,27,27,0,0,0,1,27,0,0,0,10,5,0,5,0,0,0,0,0,0,0,0,0,0,0,0,0,0,0,0,0,0,0,0,0,0,0,0,0,0,0,0,0],"split_type":[0,0,0,0,0,0,0,0,0,0,0,0,0,0,0,0,0,0,0,0,0,0,0,0,0,0,0,0,0,0,0,0,0,0,0,0,0,0,0,0,0,0,0,0,0,0,0,0,0,0,0,0,0,0,0],"sum_hessian":[1.8937173E3,1.6543263E3,2.3939102E2,1.2001234E3,4.5420282E2,2.0528438E2,3.410664E1,1.5244202E2,1.0476814E3,1.1671271E2,3.374901E2,1.51665E2,5.3619377E1,2.2277924E1,1.1828716E1,1.0469336E2,4.774866E1,1.54381E2,8.933004E2,4.8965145E1,6.774756E1,1.5376846E2,1.8372165E2,1.9609177E1,1.3205582E2,1.6603043E1,3.7016335E1,7.603432E0,1.4674492E1,9.739938E1,7.2939763E0,7.064691E0,4.068397E1,2.89035E1,1.254775E2,7.9409045E2,9.920994E1,7.0525455E0,4.19126E1,2.2301102E1,4.5446457E1,4.33064E1,1.1046207E2,1.6443475E2,1.9286901E1,6.4048734E0,1.3204304E1,1.14947495E2,1.7108328E1,9.918917E0,6.6841254E0,1.8473106E1,1.8543228E1,6.433977E0,8.240515E0],"tree_param":{"num_deleted":"0","num_feature":"48","num_nodes":"55","size_leaf_vector":"1"}},{"base_weights":[2.7772195E-3,-1.5217163E-1,8.2045656E-1,1.3103685E-1,-3.1433067E-1,9.35128E-1,-2.715343E-2,9.7808026E-2,1.2182995E0,-3.5031044E-1,7.799806E-1,5.7513386E-1,1.0066577E0,-5.7767224E-1,4.3361008E-1,-1.0437349E-2,3.6044794E-1,7.497897E-2,5.31134E-2,-4.6328533E-1,-1.7706048E-1,4.1359514E-1,1.1842793E0,1.8318209E-1,9.019155E-1,1.082905E0,5.592559E-1,-3.7508684E-3,-5.411382E-2,4.945357E-2,1.2669055E-1,7.3062475E-3,-8.345119E-3,2.5758868E-2,5.2217944E-3,-3.2044735E-2,-1.7039405E-2,-2.456613E-2,-5.166995E-3,5.4183092E-2,-1.4202175E-2,4.9808506E-2,6.859577E-2,2.3072517E-2,-2.666177E-4,3.1676516E-2,5.8874536E-2,5.616533E-2,3.420611E-2,4.9917594E-2,-4.5415345E-3,-1.658945E-2,2.8644526E-2],"categories":[],"categories_nodes":[],"categories_segments":[],"categories_sizes":[],"default_left":[0,0,0,0,0,0,0,0,0,0,0,0,0,0,0,0,0,0,0,0,0,0,0,0,0,0,0,0,0,0,0,0,0,0,0,0,0,0,0,0,0,0,0,0,0,0,0,0,0,0,0,0,0],"id":17,"left_children":[1,3,5,7,9,11,13,15,17,19,21,23,25,27,29,31,33,-1,-1,35,37,39,41,43,45,47,49,-1,-1,-1,51,-1,-1,-1,-1,-1,-1,-1,-1,-1,-1,-1,-1,-1,-1,-1,-1,-1,-1,-1,-1,-1,-1],"loss_changes":[2.3721558E2,7.228611E1,2.8993835E1,2.0700703E1,3.940828E1,6.7593994E0,9.016935E0,1.5810698E1,7.459049E-1,1.8965073E1,4.713442E0,5.576112E0,7.4703674E0,3.9386787E0,3.1760926E0,9.260325E0,6.0440483E0,0E0,0E0,1.2492256E1,8.822985E0,7.501463E0,4.9417114E-1,1.0052516E0,1.6745605E0,1.3589783E0,8.671762E0,0E0,0E0,0E0,2.4170475E0,0E0,0E0,0E0,0E0,0E0,0E0,0E0,0E0,0E0,0E0,0E0,0E0,0E0,0E0,0E0,0E0,0E0,0E0,0E0,0E0,0E0,0E0],"parents":[2147483647,0,0,1,1,2,2,3,3,4,4,5,5,6,6,7,7,8,8,9,9,10,10,11,11,12,12,13,13,14,14,15,15,16,16,19,19,20,20,21,21,22,22,23,23,24,24,25,25,26,26,30,30],"right_children":[2,4,6,8,10,12,14,16,18,20,22,24,26,28,30,32,34,-1,-1,36,38,40,42,44,46,48,50,-1,-1,-1,52,-1,-1,-1,-1,-1,-1,-1,-1,-1,-1,-1,-1,-1,-1,-1,-1,-1,-1,-1,-1,-1,-1],"split_conditions":[1E0,1E0,1E0,1E0,1E0,-7.879536E-2,-1.4084318E-3,5.957046E-1,1E0,1E0,1.5336542E-1,1E0,7.5978495E-2,-7.0799243E-1,1E0,1E0,1E0,7.497897E-2,5.31134E-2,-7.879536E-2,-6.2050384E-1,-6.4591163E-1,2.2321975E-1,-6.2050384E-1,1E0,1E0,1E0,-3.7508684E-3,-5.411382E-2,4.945357E-2,-2.510349E-2,7.3062475E-3,-8.345119E-3,2.5758868E-2,5.2217944E-3,-3.2044735E-2,-1.7039405E-2,-2.456613E-2,-5.166995E-3,5.4183092E-2,-1.4202175E-2,4.9808506E-2,6.859577E-2,2.3072517E-2,-2.666177E-4,3.1676516E-2,5.8874536E-2,5.616533E-2,3.420611E-2,4.9917594E-2,-4.5415345E-3,-1.658945E-2,2.8644526E-2],"split_indices":[10,29,18,7,12,1,1,0,24,24,1,5,1,0,29,18,2,0,0,1,1,0,0,1,24,29,5,0,0,0,0,0,0,0,0,0,0,0,0,0,0,0,0,0,0,0,0,0,0,0,0,0,0],"split_type":[0,0,0,0,0,0,0,0,0,0,0,0,0,0,0,0,0,0,0,0,0,0,0,0,0,0,0,0,0,0,0,0,0,0,0,0,0,0,0,0,0,0,0,0,0,0,0,0,0,0,0,0,0],"sum_hessian":[1.8722643E3,1.5739935E3,2.982707E2,5.730872E2,1.0009063E3,2.6272974E2,3.554096E1,5.560972E2,1.699004E1,9.690493E2,3.1856976E1,4.356074E1,2.1916899E2,1.6195889E1,1.934507E1,3.9379025E2,1.6230695E2,7.025031E0,9.965008E0,5.865463E2,3.8250302E2,1.6718462E1,1.5138514E1,1.9811264E1,2.3749477E1,1.8724776E2,3.1921234E1,7.9261856E0,8.269703E0,7.0430017E0,1.2302068E1,1.9655342E2,1.9723683E2,1.0409657E2,5.8210384E1,2.5809604E2,3.284503E2,7.6273026E1,3.0622998E2,8.633634E0,8.084828E0,6.5901065E0,8.548407E0,8.16646E0,1.1644804E1,1.1228191E1,1.2521285E1,1.7954391E2,7.7038383E0,1.93928E1,1.2528433E1,6.0289783E0,6.2730894E0],"tree_param":{"num_deleted":"0","num_feature":"48","num_nodes":"53","size_leaf_vector":"1"}},{"base_weights":[1.3156116E-2,-1.3542432E-1,7.964506E-1,1.1408338E-1,-2.7771008E-1,9.3008155E-1,3.5920224E-1,9.068876E-2,1.0789686E0,-3.11893E-1,7.9889643E-1,1.0116324E0,4.825795E-1,4.7645684E-2,7.6485103E-1,-1.508527E-2,2.0123072E-1,7.204261E-2,4.128415E-2,-4.110541E-1,-1.5823103E-1,5.80054E-2,7.1094084E-1,1.0325006E0,3.5292465E-2,9.671223E-1,-2.0098703E-2,-3.3130288E-1,3.607194E-1,1.011529E0,1.7281732E-2,1.4237132E-2,-5.0555393E-3,1.2484509E-2,-1.0192493E-2,-4.9830467E-2,-1.9350732E-2,7.2217616E-3,-1.08565E-2,4.3422434E-2,3.247138E-2,3.9499987E-2,5.370416E-2,4.598219E-2,5.4563228E-2,1.5503541E-2,-2.4021108E-2,-3.6964722E-2,3.302822E-3,4.3035005E-4,3.0485537E-2,5.682552E-2,4.9050875E-2],"categories":[],"categories_nodes":[],"categories_segments":[],"categories_sizes":[],"default_left":[0,0,0,0,0,0,0,0,0,0,0,0,0,0,0,0,0,0,0,0,0,0,0,0,0,0,0,0,0,0,0,0,0,0,0,0,0,0,0,0,0,0,0,0,0,0,0,0,0,0,0,0,0],"id":18,"left_children":[1,3,5,7,9,11,13,15,17,19,21,23,25,27,29,31,33,-1,-1,35,37,-1,39,41,-1,43,45,47,49,51,-1,-1,-1,-1,-1,-1,-1,-1,-1,-1,-1,-1,-1,-1,-1,-1,-1,-1,-1,-1,-1,-1,-1],"loss_changes":[2.193454E2,5.6241173E1,1.7553696E1,1.298297E1,3.7127144E1,8.393707E0,8.888572E0,6.5682144E0,1.2138844E0,1.4897606E1,9.1485023E-1,1.2934418E0,8.646412E0,4.7217884E0,3.2077656E0,7.08799E0,4.7809477E0,0E0,0E0,1.0703194E1,6.2665176E0,0E0,2.5177288E-1,9.30542E-1,0E0,1.13780975E-1,2.54286E0,2.803953E0,1.8155293E0,9.0696335E-2,0E0,0E0,0E0,0E0,0E0,0E0,0E0,0E0,0E0,0E0,0E0,0E0,0E0,0E0,0E0,0E0,0E0,0E0,0E0,0E0,0E0,0E0,0E0],"parents":[2147483647,0,0,1,1,2,2,3,3,4,4,5,5,6,6,7,7,8,8,9,9,10,10,11,11,12,12,13,13,14,14,15,15,16,16,19,19,20,20,22,22,23,23,25,25,26,26,27,27,28,28,29,29],"right_children":[2,4,6,8,10,12,14,16,18,20,22,24,26,28,30,32,34,-1,-1,36,38,-1,40,42,-1,44,46,48,50,52,-1,-1,-1,-1,-1,-1,-1,-1,-1,-1,-1,-1,-1,-1,-1,-1,-1,-1,-1,-1,-1,-1,-1],"split_conditions":[1E0,1E0,1E0,1E0,1E0,1E0,1E0,1E0,1E0,1E0,1E0,1E0,1E0,1E0,1E0,1E0,1E0,7.204261E-2,4.128415E-2,1E0,1E0,5.80054E-2,1E0,1E0,3.5292465E-2,1E0,1E0,1E0,1E0,1E0,1.7281732E-2,1.4237132E-2,-5.0555393E-3,1.2484509E-2,-1.0192493E-2,-4.9830467E-2,-1.9350732E-2,7.2217616E-3,-1.08565E-2,4.3422434E-2,3.247138E-2,3.9499987E-2,5.370416E-2,4.598219E-2,5.4563228E-2,1.5503541E-2,-2.4021108E-2,-3.6964722E-2,3.302822E-3,4.3035005E-4,3.0485537E-2,5.682552E-2,4.9050875E-2],"split_indices":[10,29,29,7,12,19,12,3,24,24,19,47,11,24,24,42,47,0,0,42,19,0,2,11,0,17,5,5,2,2,0,0,0,0,0,0,0,0,0,0,0,0,0,0,0,0,0,0,0,0,0,0,0],"split_type":[0,0,0,0,0,0,0,0,0,0,0,0,0,0,0,0,0,0,0,0,0,0,0,0,0,0,0,0,0,0,0,0,0,0,0,0,0,0,0,0,0,0,0,0,0,0,0,0,0,0,0,0,0],"sum_hessian":[1.884677E3,1.5841781E3,3.00499E2,5.7531116E2,1.00886694E3,2.3015123E2,7.0347755E1,5.616979E2,1.3613238E1,9.778248E2,3.1042084E1,1.9466643E2,3.5484795E1,3.979406E1,3.0553696E1,2.8702686E2,2.7467105E2,6.088504E0,7.524734E0,5.942928E2,3.8353207E2,6.400845E0,2.4641237E1,1.8273729E2,1.1929144E1,1.807014E1,1.7414652E1,1.7998707E1,2.1795353E1,1.9346336E1,1.120736E1,6.3751587E1,2.2327527E2,2.4784674E2,2.6824306E1,3.1700817E1,5.62592E2,5.9003223E1,3.2452884E2,8.549525E0,1.6091713E1,1.3053545E1,1.6968375E2,1.1000674E1,7.069467E0,1.0128526E1,7.286127E0,9.036101E0,8.962605E0,8.764097E0,1.3031257E1,6.358343E0,1.2987993E1],"tree_param":{"num_deleted":"0","num_feature":"48","num_nodes":"53","size_leaf_vector":"1"}},{"base_weights":[1.222671E-2,-1.3259822E-1,1.0938036E0,-2.1894361E-1,9.215555E-2,1.1553231E0,9.3774307E-1,-7.898019E-3,-3.7062797E-1,1.1037741E-1,-6.0073152E-2,1.1775966E0,1.099576E0,8.805168E-1,6.0523834E-2,3.1131592E-1,-6.849269E-2,-4.108985E-1,2.1167448E-1,7.473854E-1,7.822479E-2,1.1470685E0,1.3010101E0,1.0577049E0,6.630626E-2,9.582226E-1,7.620731E-1,2.4023248E-2,-4.5950543E-3,-6.753181E-2,-2.4077473E-3,-1.9954577E-2,-4.323281E-2,-1.6209818E-2,2.5456388E-2,7.955629E-3,5.0979346E-2,-8.705122E-3,7.479163E-3,5.724571E-2,6.4114586E-2,5.9655786E-2,7.097965E-2,5.5852436E-2,4.6371173E-2,5.5046715E-2,3.762768E-2,2.1795822E-2,5.2071415E-2],"categories":[],"categories_nodes":[],"categories_segments":[],"categories_sizes":[],"default_left":[0,0,0,0,0,0,0,0,0,0,0,0,0,0,0,0,0,0,0,0,0,0,0,0,0,0,0,0,0,0,0,0,0,0,0,0,0,0,0,0,0,0,0,0,0,0,0,0,0],"id":19,"left_children":[1,3,5,7,9,11,13,15,17,19,-1,21,23,25,-1,27,29,31,33,35,37,39,41,43,-1,45,47,-1,-1,-1,-1,-1,-1,-1,-1,-1,-1,-1,-1,-1,-1,-1,-1,-1,-1,-1,-1,-1,-1],"loss_changes":[2.9233252E2,3.1940968E1,2.1071472E0,3.806384E1,1.0562725E1,1.8643188E-1,8.770294E-1,9.61748E0,1.6223831E1,9.221127E0,0E0,4.143982E-1,3.6769867E-1,4.596367E-1,0E0,5.0770454E0,1.1172316E1,5.607643E0,6.802209E0,3.215497E0,7.288747E0,2.4001312E-1,2.5365448E-1,1.9648743E-1,0E0,8.0628204E-1,1.7341213E0,0E0,0E0,0E0,0E0,0E0,0E0,0E0,0E0,0E0,0E0,0E0,0E0,0E0,0E0,0E0,0E0,0E0,0E0,0E0,0E0,0E0,0E0],"parents":[2147483647,0,0,1,1,2,2,3,3,4,4,5,5,6,6,7,7,8,8,9,9,11,11,12,12,13,13,15,15,16,16,17,17,18,18,19,19,20,20,21,21,22,22,23,23,25,25,26,26],"right_children":[2,4,6,8,10,12,14,16,18,20,-1,22,24,26,-1,28,30,32,34,36,38,40,42,44,-1,46,48,-1,-1,-1,-1,-1,-1,-1,-1,-1,-1,-1,-1,-1,-1,-1,-1,-1,-1,-1,-1,-1,-1],"split_conditions":[1E0,1E0,9.681895E-1,1E0,2.5822906E0,9.905813E-2,1E0,1E0,1E0,1E0,-6.0073152E-2,1E0,8.440279E-1,2.085644E0,6.0523834E-2,1E0,1E0,2.0235634E0,1E0,-3.9758837E-1,-6.4591163E-1,1E0,1E0,1E0,6.630626E-2,1E0,2.3339674E0,2.4023248E-2,-4.5950543E-3,-6.753181E-2,-2.4077473E-3,-1.9954577E-2,-4.323281E-2,-1.6209818E-2,2.5456388E-2,7.955629E-3,5.0979346E-2,-8.705122E-3,7.479163E-3,5.724571E-2,6.4114586E-2,5.9655786E-2,7.097965E-2,5.5852436E-2,4.6371173E-2,5.5046715E-2,3.762768E-2,2.1795822E-2,5.2071415E-2],"split_indices":[20,28,0,23,0,0,9,11,10,5,0,5,0,0,0,14,42,0,5,0,0,28,9,5,0,28,0,0,0,0,0,0,0,0,0,0,0,0,0,0,0,0,0,0,0,0,0,0,0],"split_type":[0,0,0,0,0,0,0,0,0,0,0,0,0,0,0,0,0,0,0,0,0,0,0,0,0,0,0,0,0,0,0,0,0,0,0,0,0,0,0,0,0,0,0,0,0,0,0,0,0],"sum_hessian":[1.8662557E3,1.6458705E3,2.2038535E2,1.1890696E3,4.5680087E2,1.5804794E2,6.23374E1,4.9724753E2,6.91822E2,4.5034048E2,6.4604E0,1.1285576E2,4.5192184E1,5.0677956E1,1.1659442E1,7.932156E1,4.1792596E2,6.470775E2,4.4744484E1,2.1631506E1,4.2870895E2,9.051456E1,2.2341202E1,3.7384705E1,7.80748E0,3.0576235E1,2.0101723E1,5.677563E1,2.2545935E1,6.974708E0,4.1095126E2,6.188874E2,2.8190163E1,1.5733124E1,2.901136E1,6.4596295E0,1.5171877E1,9.236245E1,3.3634653E2,7.3535614E1,1.6978943E1,9.07513E0,1.3266071E1,2.9962114E1,7.4225917E0,1.9772512E1,1.0803722E1,8.75943E0,1.1342293E1],"tree_param":{"num_deleted":"0","num_feature":"48","num_nodes":"49","size_leaf_vector":"1"}},{"base_weights":[-1.1576975E-3,-1.3747852E-1,1.0568873E0,-1.693181E-1,2.8754893E-1,1.1291122E0,8.7192005E-1,-2.9370138E-1,-8.2271E-2,-1.00193776E-1,5.0848365E-1,1.1021795E0,1.2158197E0,1.047116E0,7.523826E-1,-9.6752904E-2,-4.2109287E-1,-9.405647E-2,6.233686E-1,2.643534E-1,-6.667861E-1,3.9737117E-1,6.891833E-2,1.1241064E0,1.0218186E0,1.2597677E0,5.690969E-2,1.1120706E0,4.4212032E-2,6.6976535E-1,5.6859564E-2,-1.1281596E-2,3.2067064E-3,-2.2439947E-2,1.5832417E-2,-5.2827E-3,3.5688825E-2,8.566944E-3,6.113382E-2,4.3008883E-2,2.1428345E-3,-1.5684282E-2,-5.7246096E-2,3.1407308E-2,-4.3379287E-3,6.305225E-2,5.6539174E-2,4.787266E-2,6.4659916E-2,6.6799186E-2,6.326316E-2,5.0016515E-2,6.539809E-2,4.150039E-2,1.9945225E-2],"categories":[],"categories_nodes":[],"categories_segments":[],"categories_sizes":[],"default_left":[0,0,0,0,0,0,0,0,0,0,0,0,0,0,0,0,0,0,0,0,0,0,0,0,0,0,0,0,0,0,0,0,0,0,0,0,0,0,0,0,0,0,0,0,0,0,0,0,0,0,0,0,0,0,0],"id":20,"left_children":[1,3,5,7,9,11,13,15,17,19,21,23,25,27,29,31,33,35,37,39,41,43,-1,45,47,49,-1,51,-1,53,-1,-1,-1,-1,-1,-1,-1,-1,-1,-1,-1,-1,-1,-1,-1,-1,-1,-1,-1,-1,-1,-1,-1,-1,-1],"loss_changes":[2.6685266E2,2.2179756E1,2.8128204E0,1.650792E1,9.785875E0,3.4454346E-1,1.2351837E0,1.5748234E1,7.4586043E0,8.564208E0,6.80122E0,1.9517517E-1,1.4859772E-1,2.7416992E-1,1.0475655E0,4.8923397E0,5.193489E0,6.6208315E0,3.8511887E0,3.241646E0,2.6498604E0,6.7642374E0,0E0,1.5405273E-1,5.0198174E-1,1.3278961E-2,0E0,3.853836E-1,0E0,1.1454973E0,0E0,0E0,0E0,0E0,0E0,0E0,0E0,0E0,0E0,0E0,0E0,0E0,0E0,0E0,0E0,0E0,0E0,0E0,0E0,0E0,0E0,0E0,0E0,0E0,0E0],"parents":[2147483647,0,0,1,1,2,2,3,3,4,4,5,5,6,6,7,7,8,8,9,9,10,10,11,11,12,12,13,13,14,14,15,15,16,16,17,17,18,18,19,19,20,20,21,21,23,23,24,24,25,25,27,27,29,29],"right_children":[2,4,6,8,10,12,14,16,18,20,22,24,26,28,30,32,34,36,38,40,42,44,-1,46,48,50,-1,52,-1,54,-1,-1,-1,-1,-1,-1,-1,-1,-1,-1,-1,-1,-1,-1,-1,-1,-1,-1,-1,-1,-1,-1,-1,-1,-1],"split_conditions":[1E0,1E0,9.681895E-1,-1.5618227E-1,-4.5966917E-1,1E0,1E0,1E0,1E0,1E0,1E0,2.8530055E-1,-8.71843E-2,2.1477249E0,2.6443715E0,-4.5966917E-1,1E0,3.0940685E0,7.724608E-1,-1.1622123E0,-7.0799243E-1,6.577854E-1,6.891833E-2,1E0,8.440279E-1,1E0,5.690969E-2,1.7131592E0,4.4212032E-2,2.085644E0,5.6859564E-2,-1.1281596E-2,3.2067064E-3,-2.2439947E-2,1.5832417E-2,-5.2827E-3,3.5688825E-2,8.566944E-3,6.113382E-2,4.3008883E-2,2.1428345E-3,-1.5684282E-2,-5.7246096E-2,3.1407308E-2,-4.3379287E-3,6.305225E-2,5.6539174E-2,4.787266E-2,6.4659916E-2,6.6799186E-2,6.326316E-2,5.0016515E-2,6.539809E-2,4.150039E-2,1.9945225E-2],"split_indices":[20,10,0,1,0,23,3,23,25,18,17,0,0,0,0,0,43,1,1,1,0,0,0,10,0,27,0,0,0,0,0,0,0,0,0,0,0,0,0,0,0,0,0,0,0,0,0,0,0,0,0,0,0,0,0],"split_type":[0,0,0,0,0,0,0,0,0,0,0,0,0,0,0,0,0,0,0,0,0,0,0,0,0,0,0,0,0,0,0,0,0,0,0,0,0,0,0,0,0,0,0,0,0,0,0,0,0,0,0,0,0,0,0],"sum_hessian":[1.8501564E3,1.6389902E3,2.111662E2,1.5247749E3,1.1421529E2,1.5184593E2,5.932027E1,6.2774225E2,8.9703265E2,4.1452976E1,7.276231E1,1.159097E2,3.5936226E1,2.4041416E1,3.5278854E1,2.4656995E2,3.811723E2,8.823028E2,1.4729811E1,2.522152E1,1.6231459E1,6.428603E1,8.4762745E0,9.10093E1,2.49004E1,2.4974224E1,1.0962004E1,1.7664972E1,6.3764424E0,2.8732838E1,6.546019E0,1.3861276E2,1.07957184E2,3.7170956E2,9.462755E0,8.7191205E2,1.0390775E1,8.220911E0,6.5089E0,6.9979944E0,1.8223524E1,9.073566E0,7.1578927E0,4.4275604E1,2.0010426E1,1.1503354E1,7.950594E1,1.8579838E1,6.320562E0,7.156484E0,1.781774E1,9.949179E0,7.715795E0,1.8964363E1,9.768475E0],"tree_param":{"num_deleted":"0","num_feature":"48","num_nodes":"55","size_leaf_vector":"1"}},{"base_weights":[-1.8994592E-2,-1.5443721E-1,1.0479048E0,1.70982E-1,-2.0223697E-1,1.0161762E0,1.2033656E0,2.6056817E-1,-8.2741104E-2,-9.097847E-2,-2.675412E-1,9.931581E-1,5.750301E-2,5.7580967E-2,1.2321597E0,4.8430406E-2,5.833878E-1,1.3819211E-2,-1.5117641E-1,-1.3038535E-1,1.3288056E-2,-2.713985E-1,6.1789937E-3,1.0353943E0,4.9821638E-2,1.2835863E0,5.7673793E-2,2.227413E-2,-1.6122421E-2,4.709741E-2,2.5790792E-2,-1.9458322E-2,-2.2556269E-5,-1.0687004E-2,8.177766E-3,-3.435542E-2,-1.3708212E-2,5.5265155E-2,4.5711495E-2,7.0522785E-2,6.2450636E-2],"categories":[],"categories_nodes":[],"categories_segments":[],"categories_sizes":[],"default_left":[0,0,0,0,0,0,0,0,0,0,0,0,0,0,0,0,0,0,0,0,0,0,0,0,0,0,0,0,0,0,0,0,0,0,0,0,0,0,0,0,0],"id":21,"left_children":[1,3,5,7,9,11,13,15,17,19,21,23,-1,-1,25,27,29,-1,31,33,-1,35,-1,37,-1,39,-1,-1,-1,-1,-1,-1,-1,-1,-1,-1,-1,-1,-1,-1,-1],"loss_changes":[2.6398108E2,2.5215412E1,1.0055847E0,4.719502E0,1.0268433E1,4.263153E-1,6.5013885E-2,1.0506098E1,1.310309E0,7.2384696E0,1.3356285E0,9.257507E-2,0E0,0E0,1.2125778E-1,1.309327E1,1.6059856E0,0E0,1.57337E0,1.0797679E1,0E0,9.8194885E-1,0E0,2.5964737E-1,0E0,8.636284E-2,0E0,0E0,0E0,0E0,0E0,0E0,0E0,0E0,0E0,0E0,0E0,0E0,0E0,0E0,0E0],"parents":[2147483647,0,0,1,1,2,2,3,3,4,4,5,5,6,6,7,7,8,8,9,9,10,10,11,11,14,14,15,15,16,16,18,18,19,19,21,21,23,23,25,25],"right_children":[2,4,6,8,10,12,14,16,18,20,22,24,-1,-1,26,28,30,-1,32,34,-1,36,-1,38,-1,40,-1,-1,-1,-1,-1,-1,-1,-1,-1,-1,-1,-1,-1,-1,-1],"split_conditions":[1E0,1E0,1E0,1E0,1E0,1E0,1E0,1E0,1E0,1E0,1E0,1E0,5.750301E-2,5.7580967E-2,1E0,1E0,1E0,1.3819211E-2,1E0,1E0,1.3288056E-2,1E0,6.1789937E-3,1E0,4.9821638E-2,1E0,5.7673793E-2,2.227413E-2,-1.6122421E-2,4.709741E-2,2.5790792E-2,-1.9458322E-2,-2.2556269E-5,-1.0687004E-2,8.177766E-3,-3.435542E-2,-1.3708212E-2,5.5265155E-2,4.5711495E-2,7.0522785E-2,6.2450636E-2],"split_indices":[20,9,9,18,23,23,5,23,42,27,31,27,0,0,23,8,5,0,5,18,0,21,0,5,0,27,0,0,0,0,0,0,0,0,0,0,0,0,0,0,0],"split_type":[0,0,0,0,0,0,0,0,0,0,0,0,0,0,0,0,0,0,0,0,0,0,0,0,0,0,0,0,0,0,0,0,0,0,0,0,0,0,0,0,0],"sum_hessian":[1.8268252E3,1.6210394E3,2.0578574E2,2.076048E2,1.4134347E3,1.7093584E2,3.4849895E1,1.5343903E2,5.4165775E1,5.227976E2,8.90637E2,1.4153566E2,2.9400175E1,9.719442E0,2.5130451E1,9.2599815E1,6.0839214E1,8.776533E0,4.538924E1,4.7008548E2,5.2712162E1,8.818919E2,8.745085E0,4.0324875E1,1.0121079E2,1.6670124E1,8.460328E0,4.4846092E1,4.7753723E1,1.1354949E1,4.9484264E1,1.7955078E1,2.7434162E1,3.6959332E2,1.00492165E2,6.048578E0,8.758433E2,3.0054518E1,1.0270358E1,6.26746E0,1.0402664E1],"tree_param":{"num_deleted":"0","num_feature":"48","num_nodes":"41","size_leaf_vector":"1"}},{"base_weights":[-6.1412854E-3,-1.3528001E-1,1.0388508E0,7.321539E-2,-2.5193924E-1,9.696298E-1,1.1005138E0,6.50557E-1,3.136438E-2,2.6637352E-1,-3.2174444E-1,5.6364175E-2,9.447933E-1,1.062748E0,1.2221603E0,-2.6676897E-2,9.8294353E-1,-5.8531344E-2,4.4897754E-2,3.8429856E-1,-3.3018145E-1,-4.5081913E-1,-2.1891756E-1,4.7039155E-2,1.01059E0,6.151483E-2,1.0383117E0,1.3100369E0,5.1385395E-2,6.079888E-2,4.1005734E-2,4.7498565E-2,1.3518375E-3,6.1280582E-2,1.5456959E-2,-2.7464284E-2,-9.991376E-3,-7.852539E-2,-2.1001643E-2,-6.21438E-3,-1.8649803E-2,4.307053E-2,5.614251E-2,5.1384628E-2,5.8929056E-2,6.372698E-2,6.844875E-2],"categories":[],"categories_nodes":[],"categories_segments":[],"categories_sizes":[],"default_left":[0,0,0,0,0,0,0,0,0,0,0,0,0,0,0,0,0,0,0,0,0,0,0,0,0,0,0,0,0,0,0,0,0,0,0,0,0,0,0,0,0,0,0,0,0,0,0],"id":22,"left_children":[1,3,5,7,9,11,13,15,17,19,21,-1,23,25,27,-1,29,-1,31,33,35,37,39,-1,41,-1,43,45,-1,-1,-1,-1,-1,-1,-1,-1,-1,-1,-1,-1,-1,-1,-1,-1,-1,-1,-1],"loss_changes":[2.4643109E2,3.9532078E1,8.486328E-1,1.4087289E1,3.770703E1,3.0851746E-1,4.7795105E-1,1.5371115E1,8.667136E0,8.702196E0,1.21881485E1,0E0,1.1332703E-1,2.7297974E-1,4.6515274E-1,0E0,1.140337E0,0E0,8.76265E0,6.8605127E0,5.682101E-1,1.739698E1,7.2758274E0,0E0,3.0064583E-1,0E0,2.440567E-1,2.2462845E-2,0E0,0E0,0E0,0E0,0E0,0E0,0E0,0E0,0E0,0E0,0E0,0E0,0E0,0E0,0E0,0E0,0E0,0E0,0E0],"parents":[2147483647,0,0,1,1,2,2,3,3,4,4,5,5,6,6,7,7,8,8,9,9,10,10,12,12,13,13,14,14,16,16,18,18,19,19,20,20,21,21,22,22,24,24,26,26,27,27],"right_children":[2,4,6,8,10,12,14,16,18,20,22,-1,24,26,28,-1,30,-1,32,34,36,38,40,-1,42,-1,44,46,-1,-1,-1,-1,-1,-1,-1,-1,-1,-1,-1,-1,-1,-1,-1,-1,-1,-1,-1],"split_conditions":[1E0,1E0,1E0,1E0,1E0,1E0,1E0,-3.1095612E-1,-2.555177E0,1E0,-7.879536E-2,5.6364175E-2,1E0,1E0,1E0,-2.6676897E-2,1E0,-5.8531344E-2,-2.1682422E0,-1.0848254E0,-1.5618227E-1,1E0,6.950739E-1,4.7039155E-2,1E0,6.151483E-2,1E0,1E0,5.1385395E-2,6.079888E-2,4.1005734E-2,4.7498565E-2,1.3518375E-3,6.1280582E-2,1.5456959E-2,-2.7464284E-2,-9.991376E-3,-7.852539E-2,-2.1001643E-2,-6.21438E-3,-1.8649803E-2,4.307053E-2,5.614251E-2,5.1384628E-2,5.8929056E-2,6.372698E-2,6.844875E-2],"split_indices":[20,29,2,5,11,24,5,1,1,14,1,0,28,24,28,0,11,0,1,1,1,42,1,0,42,0,28,9,0,0,0,0,0,0,0,0,0,0,0,0,0,0,0,0,0,0,0],"split_type":[0,0,0,0,0,0,0,0,0,0,0,0,0,0,0,0,0,0,0,0,0,0,0,0,0,0,0,0,0,0,0,0,0,0,0,0,0,0,0,0,0,0,0,0,0,0,0],"sum_hessian":[1.8261207E3,1.6252762E3,2.0084456E2,5.831092E2,1.042167E3,9.466503E1,1.0617952E2,3.940502E1,5.4370416E2,1.23691666E2,9.1847534E2,1.4688646E1,7.997639E1,8.106136E1,2.5118155E1,8.696558E0,3.0708464E1,6.168974E0,5.3753516E2,1.0328115E2,2.0410511E1,4.072426E2,5.1123276E2,5.929397E1,2.0682419E1,1.181961E1,6.924175E1,1.7817715E1,7.3004403E0,1.4191542E1,1.6516922E1,1.0936777E1,5.265984E2,9.357863E0,9.392329E1,8.000203E0,1.2410309E1,1.4186469E1,3.9305612E2,3.0744028E2,2.0379248E2,7.250609E0,1.343181E1,5.456983E1,1.467192E1,6.0825176E0,1.1735198E1],"tree_param":{"num_deleted":"0","num_feature":"48","num_nodes":"47","size_leaf_vector":"1"}},{"base_weights":[-5.018912E-3,-1.07832715E-1,7.417245E-1,-1.3234714E-1,6.251825E-1,-2.3592147E-1,9.222113E-1,-2.195721E-1,8.257226E-2,1.0078467E0,4.8640838E-1,-4.7912142E-1,2.456954E-2,9.682711E-1,3.0375126E-1,-3.6868706E-1,-1.207656E-1,-1.1064784E-1,2.6506504E-1,5.6890137E-2,4.4738635E-2,6.820851E-1,2.2554885E-1,-3.0592117E-1,-4.539291E-2,1.0766618E0,7.0361024E-1,3.2063812E-2,-1.5322731E-3,-2.5007173E-2,-1.0073129E-2,-2.8559612E-3,-1.1976503E-2,3.2269538E-3,-1.4055854E-2,1.5287734E-2,-2.8687315E-2,2.6730696E-2,5.0825756E-2,2.075885E-2,-3.4367815E-3,-2.994362E-2,2.3147236E-3,5.0412674E-2,5.9021343E-2,4.048044E-2,5.7650525E-3],"categories":[],"categories_nodes":[],"categories_segments":[],"categories_sizes":[],"default_left":[0,0,0,0,0,0,0,0,0,0,0,0,0,0,0,0,0,0,0,0,0,0,0,0,0,0,0,0,0,0,0,0,0,0,0,0,0,0,0,0,0,0,0,0,0,0,0],"id":23,"left_children":[1,3,5,7,9,11,13,15,17,19,21,23,-1,25,27,29,31,33,35,-1,-1,37,39,41,-1,43,45,-1,-1,-1,-1,-1,-1,-1,-1,-1,-1,-1,-1,-1,-1,-1,-1,-1,-1,-1,-1],"loss_changes":[1.3965445E2,2.8729845E1,3.88459E1,2.900383E1,2.74193E0,5.98574E0,5.2891846E0,1.621299E1,1.5749378E1,1.8483448E-1,1.9355755E0,1.8171463E0,0E0,4.954193E0,1.3979844E0,9.11396E0,4.8856277E0,6.216409E0,6.555895E0,0E0,0E0,1.0720139E0,8.65661E-1,1.7801604E0,0E0,8.612976E-1,2.6578503E0,0E0,0E0,0E0,0E0,0E0,0E0,0E0,0E0,0E0,0E0,0E0,0E0,0E0,0E0,0E0,0E0,0E0,0E0,0E0,0E0],"parents":[2147483647,0,0,1,1,2,2,3,3,4,4,5,5,6,6,7,7,8,8,9,9,10,10,11,11,13,13,14,14,15,15,16,16,17,17,18,18,21,21,22,22,23,23,25,25,26,26],"right_children":[2,4,6,8,10,12,14,16,18,20,22,24,-1,26,28,30,32,34,36,-1,-1,38,40,42,-1,44,46,-1,-1,-1,-1,-1,-1,-1,-1,-1,-1,-1,-1,-1,-1,-1,-1,-1,-1,-1,-1],"split_conditions":[1E0,1E0,-7.879536E-2,1E0,-6.2050384E-1,1E0,1E0,-1.5618227E-1,-8.71843E-2,-7.7007324E-1,1E0,-3.8834304E-1,2.456954E-2,9.681895E-1,-3.3550754E-1,1E0,6.950739E-1,1E0,2.3201993E0,5.6890137E-2,4.4738635E-2,4.629131E-1,-3.3550754E-1,-5.2175E-1,-4.539291E-2,-3.3550754E-1,1.5336542E-1,3.2063812E-2,-1.5322731E-3,-2.5007173E-2,-1.0073129E-2,-2.8559612E-3,-1.1976503E-2,3.2269538E-3,-1.4055854E-2,1.5287734E-2,-2.8687315E-2,2.6730696E-2,5.0825756E-2,2.075885E-2,-3.4367815E-3,-2.994362E-2,2.3147236E-3,5.0412674E-2,5.9021343E-2,4.048044E-2,5.7650525E-3],"split_indices":[7,12,1,28,1,28,18,1,0,0,24,1,0,0,0,24,1,18,1,0,0,1,0,0,0,0,1,0,0,0,0,0,0,0,0,0,0,0,0,0,0,0,0,0,0,0,0],"split_type":[0,0,0,0,0,0,0,0,0,0,0,0,0,0,0,0,0,0,0,0,0,0,0,0,0,0,0,0,0,0,0,0,0,0,0,0,0,0,0,0,0,0,0,0,0,0,0],"sum_hessian":[1.8190159E3,1.598883E3,2.2013286E2,1.5471473E3,5.173568E1,3.4303505E1,1.8582936E2,1.1005167E3,4.466307E2,1.37591095E1,3.7976566E1,2.5622112E1,8.681393E0,1.729433E2,1.2886055E1,4.3858493E2,6.6193176E2,2.1693196E2,2.2969873E2,7.557338E0,6.2017713E0,2.1690716E1,1.6285852E1,1.8025656E1,7.596456E0,1.2268121E2,5.026209E1,6.5366488E0,6.3494062E0,2.5671814E2,1.818668E2,4.2194305E2,2.3998868E2,1.05544E2,1.1138796E2,2.2050598E2,9.192751E0,1.4429607E1,7.2611094E0,1.0066303E1,6.219549E0,1.002092E1,8.004736E0,5.8131195E1,6.455002E1,4.3635254E1,6.6268344E0],"tree_param":{"num_deleted":"0","num_feature":"48","num_nodes":"47","size_leaf_vector":"1"}},{"base_weights":[1.2266184E-2,-9.9622846E-2,1.0005275E0,-1.3665186E-1,7.536431E-1,1.0525014E0,7.552815E-1,8.445868E-2,-2.6653215E-1,8.2904917E-1,1.5587473E-2,1.0697888E0,4.1167498E-2,6.7814857E-1,5.110996E-2,-2.637631E-1,1.390172E-1,-8.6861724E-1,-2.4236278E-1,9.2565054E-1,2.1082938E-2,1.096353E0,9.3164617E-1,4.9971345E-1,4.7782406E-2,1.8151665E-2,-3.3508487E-2,8.452192E-3,-3.1902988E-2,-7.009572E-2,-1.50998E-2,-6.1218436E-3,-1.6673833E-2,4.1983977E-2,6.0953572E-2,5.4561775E-2,6.1218213E-2,5.60904E-2,3.1086883E-2,9.006238E-3,4.7264766E-2],"categories":[],"categories_nodes":[],"categories_segments":[],"categories_sizes":[],"default_left":[0,0,0,0,0,0,0,0,0,0,0,0,0,0,0,0,0,0,0,0,0,0,0,0,0,0,0,0,0,0,0,0,0,0,0,0,0,0,0,0,0],"id":24,"left_children":[1,3,5,7,9,11,13,15,17,19,-1,21,-1,23,-1,25,27,29,31,33,-1,35,37,39,-1,-1,-1,-1,-1,-1,-1,-1,-1,-1,-1,-1,-1,-1,-1,-1,-1],"loss_changes":[2.0062314E2,5.1493057E1,2.3448486E0,4.4858578E1,2.2869453E0,6.39328E-1,6.066456E-1,1.0980883E1,1.4315735E1,2.3260994E0,0E0,5.1345825E-1,0E0,1.1279612E0,0E0,1.9052715E1,1.0159397E1,1.0975176E1,9.768387E0,1.2942238E0,0E0,3.2502747E-1,1.2339878E0,2.0032847E0,0E0,0E0,0E0,0E0,0E0,0E0,0E0,0E0,0E0,0E0,0E0,0E0,0E0,0E0,0E0,0E0,0E0],"parents":[2147483647,0,0,1,1,2,2,3,3,4,4,5,5,6,6,7,7,8,8,9,9,11,11,13,13,15,15,16,16,17,17,18,18,19,19,21,21,22,22,23,23],"right_children":[2,4,6,8,10,12,14,16,18,20,-1,22,-1,24,-1,26,28,30,32,34,-1,36,38,40,-1,-1,-1,-1,-1,-1,-1,-1,-1,-1,-1,-1,-1,-1,-1,-1,-1],"split_conditions":[1E0,1E0,1.7752401E0,1E0,8.440279E-1,1E0,1E0,-9.300515E-1,1E0,1E0,1.5587473E-2,9.681895E-1,4.1167498E-2,2.396048E0,5.110996E-2,1E0,1E0,4.629131E-1,1E0,-2.1134593E-1,2.1082938E-2,1E0,1E0,1E0,4.7782406E-2,1.8151665E-2,-3.3508487E-2,8.452192E-3,-3.1902988E-2,-7.009572E-2,-1.50998E-2,-6.1218436E-3,-1.6673833E-2,4.1983977E-2,6.0953572E-2,5.4561775E-2,6.1218213E-2,5.60904E-2,3.1086883E-2,9.006238E-3,4.7264766E-2],"split_indices":[20,12,0,29,0,29,28,1,42,18,0,0,0,0,0,23,13,1,23,0,0,23,28,2,0,0,0,0,0,0,0,0,0,0,0,0,0,0,0,0,0],"split_type":[0,0,0,0,0,0,0,0,0,0,0,0,0,0,0,0,0,0,0,0,0,0,0,0,0,0,0,0,0,0,0,0,0,0,0,0,0,0,0,0,0],"sum_hessian":[1.8143243E3,1.6298007E3,1.8452364E2,1.5620194E3,6.778118E1,1.522401E2,3.2283535E1,5.7800006E2,9.840194E2,5.8012447E1,9.768731E0,1.4221793E2,1.0022175E1,2.4599092E1,7.684441E0,7.828433E1,4.9971573E2,3.7968826E1,9.460506E2,4.7069973E1,1.0942476E1,1.1924881E2,2.2969118E1,1.4556647E1,1.0042446E1,3.0377453E1,4.790688E1,4.8290738E2,1.680834E1,2.0174107E1,1.7794718E1,3.8603146E2,5.600191E2,3.4047832E1,1.302214E1,9.443399E1,2.4814816E1,1.5108293E1,7.860826E0,8.286366E0,6.270281E0],"tree_param":{"num_deleted":"0","num_feature":"48","num_nodes":"41","size_leaf_vector":"1"}},{"base_weights":[-6.9971004E-4,-1.10979415E-1,6.539328E-1,9.025711E-2,-2.2788675E-1,7.8257513E-1,-1.6660663E-1,9.559997E-1,6.5579675E-2,-2.6336208E-1,7.68591E-1,8.432226E-1,5.6719446E-1,3.1077588E-1,-5.394452E-1,3.4704812E-2,6.9821365E-2,-3.4485072E-2,1.6842195E-1,-8.8440764E-1,-2.3955266E-1,6.863191E-1,5.2690726E-2,8.7722236E-1,6.462916E-1,2.7012956E-1,7.359197E-1,1.8361282E-2,1.340643E-2,-6.927047E-3,-4.476427E-2,1.0899925E-2,-8.445396E-3,2.8838484E-5,1.3057649E-2,-1.733011E-2,-5.309096E-2,-8.095281E-3,-1.5092492E-2,4.139004E-2,3.247242E-2,4.266798E-2,5.536307E-2,4.000391E-2,1.1066705E-2,2.8786285E-2,-7.159285E-3,1.62912E-2,4.9962513E-2],"categories":[],"categories_nodes":[],"categories_segments":[],"categories_sizes":[],"default_left":[0,0,0,0,0,0,0,0,0,0,0,0,0,0,0,0,0,0,0,0,0,0,0,0,0,0,0,0,0,0,0,0,0,0,0,0,0,0,0,0,0,0,0,0,0,0,0,0,0],"id":25,"left_children":[1,3,5,7,9,11,13,15,17,19,21,23,25,27,29,-1,-1,31,33,35,37,39,-1,41,43,45,47,-1,-1,-1,-1,-1,-1,-1,-1,-1,-1,-1,-1,-1,-1,-1,-1,-1,-1,-1,-1,-1,-1],"loss_changes":[1.29936E2,3.623954E1,2.7392784E1,1.2089745E1,3.4442772E1,2.924881E0,6.260407E0,1.7755909E0,5.6640053E0,1.3908485E1,7.2044754E-1,1.1660385E0,2.4678764E0,3.4285784E-2,2.68956E0,0E0,0E0,9.064943E0,3.9834232E0,2.945858E0,4.118847E0,1.5387726E-1,0E0,1.2665024E0,1.5206347E0,2.1573484E0,3.1801872E0,0E0,0E0,0E0,0E0,0E0,0E0,0E0,0E0,0E0,0E0,0E0,0E0,0E0,0E0,0E0,0E0,0E0,0E0,0E0,0E0,0E0,0E0],"parents":[2147483647,0,0,1,1,2,2,3,3,4,4,5,5,6,6,7,7,8,8,9,9,10,10,11,11,12,12,13,13,14,14,17,17,18,18,19,19,20,20,21,21,23,23,24,24,25,25,26,26],"right_children":[2,4,6,8,10,12,14,16,18,20,22,24,26,28,30,-1,-1,32,34,36,38,40,-1,42,44,46,48,-1,-1,-1,-1,-1,-1,-1,-1,-1,-1,-1,-1,-1,-1,-1,-1,-1,-1,-1,-1,-1,-1],"split_conditions":[1E0,1E0,1E0,1E0,1E0,1E0,1E0,1E0,1E0,1E0,1E0,1E0,1E0,1E0,1E0,3.4704812E-2,6.9821365E-2,1E0,1E0,1E0,1E0,1E0,5.2690726E-2,1E0,1E0,1E0,1E0,1.8361282E-2,1.340643E-2,-6.927047E-3,-4.476427E-2,1.0899925E-2,-8.445396E-3,2.8838484E-5,1.3057649E-2,-1.733011E-2,-5.309096E-2,-8.095281E-3,-1.5092492E-2,4.139004E-2,3.247242E-2,4.266798E-2,5.536307E-2,4.000391E-2,1.1066705E-2,2.8786285E-2,-7.159285E-3,1.62912E-2,4.9962513E-2],"split_indices":[10,29,18,5,12,29,29,23,3,42,18,5,2,2,2,0,0,23,23,23,23,2,0,23,47,5,5,0,0,0,0,0,0,0,0,0,0,0,0,0,0,0,0,0,0,0,0,0,0],"split_type":[0,0,0,0,0,0,0,0,0,0,0,0,0,0,0,0,0,0,0,0,0,0,0,0,0,0,0,0,0,0,0,0,0,0,0,0,0,0,0,0,0,0,0,0,0,0,0,0,0],"sum_hessian":[1.7998672E3,1.5403805E3,2.5948672E2,5.6602985E2,9.7435065E2,2.2432175E2,3.5164974E1,1.5681328E1,5.503486E2,9.4086005E2,3.3490578E1,1.7501878E2,4.930297E1,1.5417269E1,1.9747705E1,9.401103E0,6.2802243E0,2.7892746E2,2.7142108E2,3.473078E1,9.061293E2,2.5546446E1,7.9441314E0,1.4923103E2,2.5787745E1,1.7867811E1,3.143516E1,7.5952244E0,7.8220444E0,9.000732E0,1.0746973E1,9.6386215E1,1.8254124E2,9.2980774E1,1.7844032E2,7.734297E0,2.6996487E1,3.713717E2,5.3475757E2,7.2834463E0,1.8262999E1,1.2458294E2,2.4648096E1,1.9523169E1,6.2645745E0,1.0414762E1,7.4530506E0,1.1589402E1,1.9845758E1],"tree_param":{"num_deleted":"0","num_feature":"48","num_nodes":"49","size_leaf_vector":"1"}},{"base_weights":[3.4124617E-2,2.9988837E-1,-1.5560652E-1,-9.5007524E-2,4.7470593E-1,2.9340303E-1,-2.1918182E-1,-2.7505335E-1,1.2919517E-1,8.5114557E-1,2.0924608E-1,4.7380385E-1,-6.4590566E-2,-4.9753092E-2,-3.2851484E-1,-1.871483E-1,-6.9394475E-1,3.2883173E-1,-6.1816555E-1,5.154144E-1,9.151612E-1,1.3043042E-1,6.5122795E-1,6.58116E-1,-1.3700077E-1,2.3558551E-1,-7.7326643E-1,-6.7413473E-1,3.541023E-2,-3.494974E-1,3.55681E-2,-1.7050114E-2,1.0764253E-2,-9.9551175E-3,-5.064447E-2,3.9292354E-2,1.0598605E-2,-6.4729035E-2,-7.162061E-3,6.8549685E-2,1.6649667E-2,4.8797697E-2,3.0590411E-2,9.477538E-3,-2.5676938E-2,5.7492144E-2,2.6537286E-2,5.174784E-2,2.7651407E-2,-4.3072008E-2,1.0596085E-2,-8.624582E-3,3.2655355E-2,-4.952929E-2,-2.82915E-2,-1.8007731E-2,-6.7648284E-2,6.5553165E-4,4.8917167E-2,-2.512812E-2,-1.212326E-2],"categories":[],"categories_nodes":[],"categories_segments":[],"categories_sizes":[],"default_left":[0,0,0,0,0,0,0,0,0,0,0,0,0,0,0,0,0,0,0,0,0,0,0,0,0,0,0,0,0,0,0,0,0,0,0,0,0,0,0,0,0,0,0,0,0,0,0,0,0,0,0,0,0,0,0,0,0,0,0,0,0],"id":26,"left_children":[1,3,5,7,9,11,13,15,17,19,21,23,25,27,29,31,33,35,37,39,41,43,45,47,49,51,53,55,57,59,-1,-1,-1,-1,-1,-1,-1,-1,-1,-1,-1,-1,-1,-1,-1,-1,-1,-1,-1,-1,-1,-1,-1,-1,-1,-1,-1,-1,-1,-1,-1],"loss_changes":[9.1222336E1,5.2023712E1,3.0131285E1,9.334565E0,5.2193825E1,8.45592E0,1.7126835E1,4.7197065E0,1.536448E1,4.6371765E0,1.0668645E1,9.802084E0,9.332645E0,1.9286259E1,1.209169E1,6.2024703E0,3.3072376E0,4.3401937E0,6.739729E0,5.412939E0,2.3452759E0,9.106014E0,2.885046E0,2.7617073E0,4.9188404E0,5.041527E0,5.579281E-1,9.105045E0,6.6448092E0,8.806496E0,0E0,0E0,0E0,0E0,0E0,0E0,0E0,0E0,0E0,0E0,0E0,0E0,0E0,0E0,0E0,0E0,0E0,0E0,0E0,0E0,0E0,0E0,0E0,0E0,0E0,0E0,0E0,0E0,0E0,0E0,0E0],"parents":[2147483647,0,0,1,1,2,2,3,3,4,4,5,5,6,6,7,7,8,8,9,9,10,10,11,11,12,12,13,13,14,14,15,15,16,16,17,17,18,18,19,19,20,20,21,21,22,22,23,23,24,24,25,25,26,26,27,27,28,28,29,29],"right_children":[2,4,6,8,10,12,14,16,18,20,22,24,26,28,30,32,34,36,38,40,42,44,46,48,50,52,54,56,58,60,-1,-1,-1,-1,-1,-1,-1,-1,-1,-1,-1,-1,-1,-1,-1,-1,-1,-1,-1,-1,-1,-1,-1,-1,-1,-1,-1,-1,-1,-1,-1],"split_conditions":[1E0,-1.5618227E-1,1E0,-4.5966917E-1,7.5978495E-2,1E0,1E0,-3.1095612E-1,7.819471E-1,-1.4084318E-3,1.7131592E0,1E0,1.6113894E-1,-6.9789076E-1,2.629747E0,-6.9789076E-1,-7.0799243E-1,-7.752777E-1,1.5269169E0,-6.4591163E-1,2.085644E0,1.3406744E0,1.8994017E0,-6.2050384E-1,-2.7342674E-1,-3.3550754E-1,1.2165128E0,-7.0799243E-1,2.6443715E0,-7.879536E-2,3.55681E-2,-1.7050114E-2,1.0764253E-2,-9.9551175E-3,-5.064447E-2,3.9292354E-2,1.0598605E-2,-6.4729035E-2,-7.162061E-3,6.8549685E-2,1.6649667E-2,4.8797697E-2,3.0590411E-2,9.477538E-3,-2.5676938E-2,5.7492144E-2,2.6537286E-2,5.174784E-2,2.7651407E-2,-4.3072008E-2,1.0596085E-2,-8.624582E-3,3.2655355E-2,-4.952929E-2,-2.82915E-2,-1.8007731E-2,-6.7648284E-2,6.5553165E-4,4.8917167E-2,-2.512812E-2,-1.212326E-2],"split_indices":[29,1,11,0,1,13,23,1,0,1,0,14,0,1,1,1,0,1,0,0,0,0,0,1,0,0,0,0,0,1,0,0,0,0,0,0,0,0,0,0,0,0,0,0,0,0,0,0,0,0,0,0,0,0,0,0,0,0,0,0,0],"split_type":[0,0,0,0,0,0,0,0,0,0,0,0,0,0,0,0,0,0,0,0,0,0,0,0,0,0,0,0,0,0,0,0,0,0,0,0,0,0,0,0,0,0,0,0,0,0,0,0,0,0,0,0,0,0,0,0,0,0,0,0,0],"sum_hessian":[1.8091047E3,7.535675E2,1.0555372E3,2.312287E2,5.223388E2,1.3091025E2,9.2462695E2,1.2825006E2,1.0297864E2,2.160083E2,3.063305E2,8.705081E1,4.3859432E1,3.6265942E2,5.619675E2,1.0601346E2,2.2236593E1,8.127387E1,2.1704767E1,3.4602516E1,1.8140578E2,2.5997983E2,4.6350693E1,6.687552E1,2.0175293E1,3.0807644E1,1.3051788E1,4.3530388E1,3.1912903E2,5.50704E2,1.1263527E1,7.7435005E1,2.8578455E1,8.328803E0,1.390779E1,1.750347E1,6.37704E1,9.18945E0,1.2515317E1,6.430229E0,2.8172289E1,1.605207E2,2.0885075E1,2.3912059E2,2.0859238E1,1.0018072E1,3.633262E1,1.6457296E1,5.0418224E1,6.613259E0,1.3562035E1,1.5395632E1,1.5412012E1,6.8531795E0,6.198609E0,2.9159025E1,1.4371364E1,3.1152005E2,7.608983E0,2.4188194E2,3.0882205E2],"tree_param":{"num_deleted":"0","num_feature":"48","num_nodes":"61","size_leaf_vector":"1"}},{"base_weights":[1.4247858E-2,-8.51603E-2,9.538636E-1,-1.1518542E-1,6.155628E-1,9.1894877E-1,1.123295E0,-1.8855748E-1,6.1849527E-2,7.645157E-1,4.0968242E-1,7.317159E-1,9.399699E-1,1.1523969E0,5.29389E-2,-8.033204E-2,-2.606049E-1,3.1848174E-1,-3.143446E-2,6.814185E-1,5.8080617E-2,2.5941762E-3,3.179736E-2,3.2521147E-2,4.154336E-2,9.2105365E-1,5.3713348E-2,6.1612863E-2,5.3560182E-2,-4.6090025E-2,-3.2909678E-3,-2.5376912E-2,-9.10056E-3,3.7512882E-3,2.6132874E-2,8.884681E-3,-1.4698533E-2,2.989533E-2,4.991722E-2,5.2833043E-2,4.663239E-2],"categories":[],"categories_nodes":[],"categories_segments":[],"categories_sizes":[],"default_left":[0,0,0,0,0,0,0,0,0,0,0,0,0,0,0,0,0,0,0,0,0,0,0,0,0,0,0,0,0,0,0,0,0,0,0,0,0,0,0,0,0],"id":27,"left_children":[1,3,5,7,9,11,13,15,17,19,21,23,25,27,-1,29,31,33,35,37,-1,-1,-1,-1,-1,39,-1,-1,-1,-1,-1,-1,-1,-1,-1,-1,-1,-1,-1,-1,-1],"loss_changes":[1.6846577E2,3.4314026E1,1.0123291E0,2.0315874E1,2.0508156E0,5.566559E-1,6.435013E-2,8.620846E0,1.0971466E1,1.1995182E0,2.1531658E0,1.0702801E-1,2.657547E-1,1.1438751E-1,0E0,5.758526E0,1.2923382E1,5.79272E0,1.772494E1,8.964653E-1,0E0,0E0,0E0,0E0,0E0,8.351135E-2,0E0,0E0,0E0,0E0,0E0,0E0,0E0,0E0,0E0,0E0,0E0,0E0,0E0,0E0,0E0],"parents":[2147483647,0,0,1,1,2,2,3,3,4,4,5,5,6,6,7,7,8,8,9,9,10,10,11,11,12,12,13,13,15,15,16,16,17,17,18,18,19,19,25,25],"right_children":[2,4,6,8,10,12,14,16,18,20,22,24,26,28,-1,30,32,34,36,38,-1,-1,-1,-1,-1,40,-1,-1,-1,-1,-1,-1,-1,-1,-1,-1,-1,-1,-1,-1,-1],"split_conditions":[1E0,1E0,1E0,1E0,1E0,1E0,1E0,1E0,1E0,1E0,1E0,1E0,1E0,1E0,5.29389E-2,1E0,1E0,1E0,1E0,1E0,5.8080617E-2,2.5941762E-3,3.179736E-2,3.2521147E-2,4.154336E-2,1E0,5.3713348E-2,6.1612863E-2,5.3560182E-2,-4.6090025E-2,-3.2909678E-3,-2.5376912E-2,-9.10056E-3,3.7512882E-3,2.6132874E-2,8.884681E-3,-1.4698533E-2,2.989533E-2,4.991722E-2,5.2833043E-2,4.663239E-2],"split_indices":[20,12,9,28,10,7,7,23,42,27,23,28,23,23,0,42,18,18,18,18,0,0,0,0,0,11,0,0,0,0,0,0,0,0,0,0,0,0,0,0,0],"split_type":[0,0,0,0,0,0,0,0,0,0,0,0,0,0,0,0,0,0,0,0,0,0,0,0,0,0,0,0,0,0,0,0,0,0,0,0,0,0,0,0,0],"sum_hessian":[1.8035647E3,1.6310087E3,1.7255608E2,1.5639994E3,6.7009224E1,1.4310022E2,2.9455856E1,1.1057416E3,4.582578E2,3.8867825E1,2.81414E1,1.4467384E1,1.2863283E2,2.1956036E1,7.499822E0,4.419363E2,6.638053E2,1.2217351E2,3.360843E2,3.1807756E1,7.0600705E0,1.0500608E1,1.764079E1,6.764862E0,7.702522E0,1.1016801E2,1.8464819E1,1.4276798E1,7.679236E0,8.342998E0,4.335933E2,1.7122514E2,4.9258017E2,5.393985E1,6.823366E1,1.8660179E2,1.494825E2,2.4069656E1,7.7380996E0,6.5484514E0,1.0361956E2],"tree_param":{"num_deleted":"0","num_feature":"48","num_nodes":"41","size_leaf_vector":"1"}},{"base_weights":[7.412989E-3,-8.766899E-2,9.435591E-1,2.664747E-2,-1.5229553E-1,1.0336895E0,7.209073E-1,-2.49069E-1,1.0145046E-1,-6.3117016E-3,-2.5539175E-1,1.0557619E0,4.157828E-2,6.4475095E-1,5.2477334E-2,6.3078976E-1,-3.6105362E-1,3.6729306E-1,5.2376006E-2,-3.6104402E-1,3.7591197E-2,-2.7627242E-1,6.465434E-1,5.9340697E-2,1.0408778E0,1.9817015E-2,6.953361E-1,-5.951256E-4,5.7617515E-2,-3.5173055E-2,-5.3026564E-3,2.6310291E-2,-1.3586437E-2,1.9325456E-2,-7.386427E-4,-7.163039E-4,-4.183406E-2,2.2022966E-4,2.5471412E-2,6.367852E-3,-1.6053412E-2,5.5663787E-2,8.0050975E-3,4.972976E-2,5.5238426E-2,5.269979E-2,3.0959636E-2],"categories":[],"categories_nodes":[],"categories_segments":[],"categories_sizes":[],"default_left":[0,0,0,0,0,0,0,0,0,0,0,0,0,0,0,0,0,0,0,0,0,0,0,0,0,0,0,0,0,0,0,0,0,0,0,0,0,0,0,0,0,0,0,0,0,0,0],"id":28,"left_children":[1,3,5,7,9,11,13,15,17,19,21,23,-1,25,-1,27,29,31,33,35,37,39,41,-1,43,-1,45,-1,-1,-1,-1,-1,-1,-1,-1,-1,-1,-1,-1,-1,-1,-1,-1,-1,-1,-1,-1],"loss_changes":[1.5797305E2,1.1902984E1,3.276886E0,1.1999862E1,1.5489931E1,5.552902E-1,1.0978165E0,1.2233512E1,5.969741E0,6.635901E0,1.1359943E1,1.5913391E-1,0E0,4.8674393E-1,0E0,4.490007E0,9.292821E0,6.699622E0,8.429543E0,7.467339E0,5.8207655E0,9.057129E0,2.9644303E0,0E0,2.4773407E-1,0E0,9.381447E-1,0E0,0E0,0E0,0E0,0E0,0E0,0E0,0E0,0E0,0E0,0E0,0E0,0E0,0E0,0E0,0E0,0E0,0E0,0E0,0E0],"parents":[2147483647,0,0,1,1,2,2,3,3,4,4,5,5,6,6,7,7,8,8,9,9,10,10,11,11,13,13,15,15,16,16,17,17,18,18,19,19,20,20,21,21,22,22,24,24,26,26],"right_children":[2,4,6,8,10,12,14,16,18,20,22,24,-1,26,-1,28,30,32,34,36,38,40,42,-1,44,-1,46,-1,-1,-1,-1,-1,-1,-1,-1,-1,-1,-1,-1,-1,-1,-1,-1,-1,-1,-1,-1],"split_conditions":[1E0,1E0,9.681895E-1,-6.4591163E-1,1E0,1E0,1E0,-1.3288006E0,-4.6572998E-1,-8.526646E-1,2.629747E0,-1.0183965E0,4.157828E-2,1.2785935E0,5.2477334E-2,-2.4777899E0,-9.300515E-1,7.819471E-1,1E0,-1.0848254E0,2.1477249E0,1E0,1.6113894E-1,5.9340697E-2,-3.9758837E-1,1.9817015E-2,1.6510785E0,-5.951256E-4,5.7617515E-2,-3.5173055E-2,-5.3026564E-3,2.6310291E-2,-1.3586437E-2,1.9325456E-2,-7.386427E-4,-7.163039E-4,-4.183406E-2,2.2022966E-4,2.5471412E-2,6.367852E-3,-1.6053412E-2,5.5663787E-2,8.0050975E-3,4.972976E-2,5.5238426E-2,5.269979E-2,3.0959636E-2],"split_indices":[20,29,0,0,23,29,9,0,1,1,1,0,0,0,0,1,1,0,9,1,0,9,0,0,0,0,0,0,0,0,0,0,0,0,0,0,0,0,0,0,0,0,0,0,0,0,0],"split_type":[0,0,0,0,0,0,0,0,0,0,0,0,0,0,0,0,0,0,0,0,0,0,0,0,0,0,0,0,0,0,0,0,0,0,0,0,0,0,0,0,0,0,0,0,0,0,0],"sum_hessian":[1.7747333E3,1.6110973E3,1.6363596E2,5.818434E2,1.0292539E3,1.1646743E2,4.7168533E1,1.2415937E2,4.5768402E2,4.260292E2,6.032247E2,1.0578073E2,1.06867E1,3.7816975E1,9.35156E0,1.4014058E1,1.1014532E2,7.13105E1,3.8637354E2,4.692527E1,3.791039E2,5.8958026E2,1.364443E1,1.286592E1,9.291481E1,6.2439437E0,3.157303E1,6.1197186E0,7.894339E0,4.838252E1,6.17628E1,5.7790447E1,1.3520055E1,6.5700806E1,3.206727E2,2.6720552E1,2.020472E1,3.536175E2,2.548643E1,5.1390167E1,5.381901E2,7.1496572E0,6.4947734E0,3.5808983E1,5.7105824E1,6.5592866E0,2.5013742E1],"tree_param":{"num_deleted":"0","num_feature":"48","num_nodes":"47","size_leaf_vector":"1"}},{"base_weights":[-9.890565E-3,-1.0580411E-1,6.035279E-1,7.528944E-2,-2.1074696E-1,7.4547976E-1,2.0702904E-1,-1.8105125E-1,1.4390762E-1,1.4420412E-1,-2.4784936E-1,-3.6029434E-3,8.0528784E-1,5.392227E-1,8.3632305E-2,6.3822526E-1,-2.868001E-1,7.117147E-2,2.7869436E-1,5.412074E-2,7.776572E-2,-7.8088707E-1,-2.2580132E-1,8.996452E-1,5.842822E-1,5.3537387E-2,1.4172106E-3,-3.75417E-2,2.1331868E-1,-2.2513205E-3,6.337284E-2,-5.7053693E-2,-9.362054E-3,1.2483824E-2,-3.8468165E-3,2.1268306E-2,-6.0718146E-5,1.4240157E-2,-1.0307021E-2,-6.398773E-2,-8.256074E-3,-9.997185E-3,-3.0524313E-2,4.7995668E-2,2.2765616E-2,3.365717E-2,8.308175E-3,5.9062843E-3,2.661938E-2],"categories":[],"categories_nodes":[],"categories_segments":[],"categories_sizes":[],"default_left":[0,0,0,0,0,0,0,0,0,0,0,0,0,0,0,0,0,0,0,0,0,0,0,0,0,0,0,0,0,0,0,0,0,0,0,0,0,0,0,0,0,0,0,0,0,0,0,0,0],"id":29,"left_children":[1,3,5,7,9,11,13,15,17,19,21,-1,23,25,27,29,31,33,35,-1,37,39,41,43,45,-1,-1,-1,47,-1,-1,-1,-1,-1,-1,-1,-1,-1,-1,-1,-1,-1,-1,-1,-1,-1,-1,-1,-1],"loss_changes":[1.0347687E2,2.8905693E1,1.3381844E1,9.815237E0,1.2682106E1,8.549187E0,2.5683854E0,1.0207256E1,4.3145447E0,5.5440073E0,1.0242825E1,0E0,3.3968048E0,4.423742E0,4.8575835E0,5.550121E0,8.96011E0,7.2687726E0,5.96274E0,0E0,4.7845325E0,1.0133877E1,9.318642E0,2.1131287E0,1.5460491E0,0E0,0E0,0E0,1.1858832E0,0E0,0E0,0E0,0E0,0E0,0E0,0E0,0E0,0E0,0E0,0E0,0E0,0E0,0E0,0E0,0E0,0E0,0E0,0E0,0E0],"parents":[2147483647,0,0,1,1,2,2,3,3,4,4,5,5,6,6,7,7,8,8,9,9,10,10,12,12,13,13,14,14,15,15,16,16,17,17,18,18,20,20,21,21,22,22,23,23,24,24,28,28],"right_children":[2,4,6,8,10,12,14,16,18,20,22,-1,24,26,28,30,32,34,36,-1,38,40,42,44,46,-1,-1,-1,48,-1,-1,-1,-1,-1,-1,-1,-1,-1,-1,-1,-1,-1,-1,-1,-1,-1,-1,-1,-1],"split_conditions":[1E0,1E0,1E0,-6.4591163E-1,1E0,-3.1095612E-1,-6.2050384E-1,-1.3288006E0,6.577854E-1,-1.2395992E0,1E0,-3.6029434E-3,9.681895E-1,1E0,-5.838308E-1,-2.4777899E0,-1.7813077E0,7.5978495E-2,1E0,5.412074E-2,1E0,4.629131E-1,1.7752401E0,1E0,1.5336542E-1,5.3537387E-2,1.4172106E-3,-3.75417E-2,6.17687E-1,-2.2513205E-3,6.337284E-2,-5.7053693E-2,-9.362054E-3,1.2483824E-2,-3.8468165E-3,2.1268306E-2,-6.0718146E-5,1.4240157E-2,-1.0307021E-2,-6.398773E-2,-8.256074E-3,-9.997185E-3,-3.0524313E-2,4.7995668E-2,2.2765616E-2,3.365717E-2,8.308175E-3,5.9062843E-3,2.661938E-2],"split_indices":[10,29,29,0,11,1,1,0,0,1,42,0,0,11,0,1,1,1,2,0,13,1,0,47,1,0,0,0,1,0,0,0,0,0,0,0,0,0,0,0,0,0,0,0,0,0,0,0,0],"split_type":[0,0,0,0,0,0,0,0,0,0,0,0,0,0,0,0,0,0,0,0,0,0,0,0,0,0,0,0,0,0,0,0,0,0,0,0,0,0,0,0,0,0,0,0,0,0,0,0,0],"sum_hessian":[1.7587793E3,1.5209688E3,2.3781049E2,5.5801276E2,9.6295605E2,1.7510945E2,6.270104E1,1.1781989E2,4.4019284E2,9.112223E1,8.7183386E2,1.1953586E1,1.6315587E2,1.6973942E1,4.5727097E1,1.3464598E1,1.043553E2,2.8592307E2,1.5426978E2,6.1548133E0,8.496742E1,3.462068E1,8.3721313E2,1.1432472E2,4.8831142E1,8.496003E0,8.477939E0,6.2444673E0,3.9482628E1,6.318816E0,7.1457815E0,1.1534419E1,9.282088E1,1.3095111E2,1.5497197E2,1.0331402E2,5.0955753E1,4.9419483E1,3.5547935E1,1.9622437E1,1.4998248E1,7.74986E2,6.2227127E1,1.0486996E2,9.454767E0,4.1427055E1,7.404087E0,2.9999943E1,9.482686E0],"tree_param":{"num_deleted":"0","num_feature":"48","num_nodes":"49","size_leaf_vector":"1"}},{"base_weights":[-2.5471172E-3,-8.787016E-2,8.95941E-1,-1.1993809E-1,6.256607E-1,9.8920035E-1,6.821262E-1,-2.2974391E-1,-4.2436246E-2,7.791933E-1,4.2233697E-1,9.125198E-1,1.0427516E0,5.3567433E-1,8.8668364E-1,-3.502314E-1,-1.7057219E-1,-6.742562E-2,4.1213238E-1,5.781917E-1,8.9224666E-1,6.651071E-1,-2.6229383E-2,1.010971E0,7.6218605E-1,1.071729E0,4.6380088E-2,4.06044E-1,4.6014894E-2,3.6542207E-2,9.650243E-1,7.954902E-3,-2.2143327E-2,1.0002412E-2,-1.1415401E-2,-3.8505443E-3,4.889179E-2,5.215104E-2,6.1292816E-3,2.6671775E-2,3.2581463E-2,5.125257E-2,2.9343277E-2,4.2545024E-2,3.0929085E-2,4.7029007E-2,5.9690062E-2,2.6166422E-2,4.885837E-2,6.1620906E-2,5.154032E-2,3.5974745E-2,4.5234277E-3,5.2466698E-2,4.590055E-2],"categories":[],"categories_nodes":[],"categories_segments":[],"categories_sizes":[],"default_left":[0,0,0,0,0,0,0,0,0,0,0,0,0,0,0,0,0,0,0,0,0,0,0,0,0,0,0,0,0,0,0,0,0,0,0,0,0,0,0,0,0,0,0,0,0,0,0,0,0,0,0,0,0,0,0],"id":30,"left_children":[1,3,5,7,9,11,13,15,17,19,21,23,25,27,29,31,33,35,37,39,41,43,-1,45,47,49,-1,51,-1,-1,53,-1,-1,-1,-1,-1,-1,-1,-1,-1,-1,-1,-1,-1,-1,-1,-1,-1,-1,-1,-1,-1,-1,-1,-1],"loss_changes":[1.354141E2,3.6911583E1,3.048172E0,1.3137533E1,2.1615238E0,4.2991638E-1,1.3889942E0,4.552452E0,1.0280099E1,8.9247894E-1,6.7895303E0,6.42643E-1,2.3535919E-1,1.282866E0,2.528038E-1,8.90992E0,8.342035E0,7.0599823E0,8.393782E0,4.346037E-2,8.9276886E-1,2.3061848E-1,0E0,3.6735535E-1,8.4146595E-1,4.229622E-1,0E0,1.8997631E0,0E0,0E0,4.7055244E-2,0E0,0E0,0E0,0E0,0E0,0E0,0E0,0E0,0E0,0E0,0E0,0E0,0E0,0E0,0E0,0E0,0E0,0E0,0E0,0E0,0E0,0E0,0E0,0E0],"parents":[2147483647,0,0,1,1,2,2,3,3,4,4,5,5,6,6,7,7,8,8,9,9,10,10,11,11,12,12,13,13,14,14,15,15,16,16,17,17,18,18,19,19,20,20,21,21,23,23,24,24,25,25,27,27,30,30],"right_children":[2,4,6,8,10,12,14,16,18,20,22,24,26,28,30,32,34,36,38,40,42,44,-1,46,48,50,-1,52,-1,-1,54,-1,-1,-1,-1,-1,-1,-1,-1,-1,-1,-1,-1,-1,-1,-1,-1,-1,-1,-1,-1,-1,-1,-1,-1],"split_conditions":[1E0,1E0,9.681895E-1,-3.9758837E-1,1E0,1E0,1E0,-8.3215404E-1,1E0,-4.5966917E-1,9.905813E-2,-8.71843E-2,2.8530055E-1,2.3339674E0,1E0,1E0,-7.7007324E-1,1E0,1E0,-7.0799243E-1,8.440279E-1,1E0,-2.6229383E-2,-3.9758837E-1,4.0946218E-1,1E0,4.6380088E-2,1.7752401E0,4.6014894E-2,3.6542207E-2,1.8994017E0,7.954902E-3,-2.2143327E-2,1.0002412E-2,